Int Weight 1:
[[  91  -70   24   55 -124  -30  -72  -59  -43  214  196  -61  -37 -159   62  -74  104 -185   27  158  118 -107  126 -239  -34 -121  109    0  -11   21   79 -128]
 [ -70 -140 -158 -186   59   11   82  115 -192   40  210   35  -95  -57   70 -198  -62  -20 -166   67 -136   16   75   74   52  121  -16   21  144  227  -58   15]
 [  15  -17  116   19   18  115  215   54  212  -64  -28   11   33  -79   70  -90  -50  136   85   79   89   34  -56   84 -163   41    0  -37  -67  -22   13   60]
 [   2   46   23 -112   96  109  -27  -79  -59   64    8 -121 -209   52 -142 -107  135  150  108  -43  -30  196 -219   37   90  -32  -17  164  -18  108 -116  -63]
 [  78  -37   -6   99   25  -54  -24   67 -140  -51 -109   37  -80   20 -108   45    7  -50    4   85 -101  131  -40  100 -125 -125   -3  -21   -8   31 -156  -24]
 [  90 -132   73    0   64  -52   77  145 -161  -29  202   64 -223  -52 -129   78   14   24 -110  -78   27 -185  -75  124  144  -90   60   63   67   80   69  -17]
 [  -8  -51  -72  195  124   62 -132   42 -155  -31 -178   57 -104  -96   61 -210   45  -23   -8   94 -163   19   34  183  -47  -53   97   15  -28   22  -89  -54]
 [  11 -183    1  105  -56  -31 -129  -27  -41   10  -89  -76   25   28   31 -193   76  -88   18   90  -96  -71  189   47   36  -62  155 -116   36  -19  132   51]
 [ -57   78   47  -12   65   95    8   59 -299 -121   72 -105   56   31   -6 -131  -54  -75 -208   -6   -1  -68   27   39 -192  145  -28  -69 -152 -176   69 -100]
 [  50   17   -9  117 -275  124 -169   33  -13   76  -59  -73  -94 -192 -115 -128  -88  -40  -68 -127 -122   95  -20 -192  -19  -69  111   97  -49   51  152  109]
 [  57 -210  -64  -74   31  -45 -112 -183  -83   19  -67  182 -160  -10   89  -15   53 -135   26   69  114  -23  110   72  136  145  207  -36 -106  -69   13   66]
 [  39  -51   37   32  139   62 -129  105  -30   61 -114 -100   51 -177 -105  -67   94 -135  -39  116 -163   37   42  128   47 -174   82   17  -42  -86   48  112]
 [ -51   24  -14  -43   41 -156   17  209   39  110  -32 -120  -26   70  147  -79   69   94   52   14  -24  -21  -78  -30  226  -56 -150  -93   79  116    8  102]
 [  71 -119  245   74   77  -76 -119  -70 -143  104 -182  125   79  -59  -31   64  106   43  -19  -27   17  -54  -11  -13  -66  -62   31   55 -120   14 -105  -47]
 [-197 -195  -46 -105  233   14  -17  -36   24  -15  -10 -152   30    3  139  103  238  -28  -78  -67  -29  164   32  170  -18   -6  125  -55  -62  -85   -1   24]
 [ -28  -17   99   39  -72  -42  139 -128 -107   80  -79 -118  -10  -90   11   -2   81 -194   73   67  -95 -126   28  -54  -76  -82  -51   29  234  -88 -124   36]
 [  51  -68 -274 -183   37   16  153   15 -118   87  154  212   49  -23 -152  -23  -27   88  -75   70  145   -2 -176  -30   92 -282   20  -60  -69  -55  -75  130]
 [ 112   -3  -59 -102  -49  -76  -28    3 -119  -13 -170 -133  -64  110 -160   36  241 -127   79 -141  -61 -217   85  -44 -133  167  -25 -156 -127   90   -1   79]
 [  58  -96 -193   45  147   -9    4  196 -188  128  178  146 -108   -6    6  -67   46   82 -168  342  -62   48   73   14    9  -33  -56 -178   23  -69  -51  -31]
 [  51 -177   87  102   23   47  110   37  -43  -79  -15   61  -37 -155    7   58 -104   65   36  150  -19   83   36  214   11   79  115  223   33  -19 -125   43]
 [ -38  141  218 -151 -152  155  -36   77   40   96 -110  -29   12  -64 -162  -76  -58 -205   81   92  128  -93  -99   15   30   13 -113   69 -150  -93  -10 -113]
 [ -28  -38  218   53   21 -191  -34 -106 -159   82   22   32   29   -7  102  294  157  100   20  163   34 -167  138  -75  -10  122 -163  122  140  -12 -194   29]
 [  14   -4  -87   -7  -17  120  -66 -176   12  -80   25 -138 -121  -74  288  -82 -222  -24  116 -147   16   41  -19  -61   83  150   98  -74  -61   42 -135   -4]
 [  47  -30   70  -37   97  198 -139  -93    3    7 -146   63   73 -122  238  -91  194   26  -34  -92    1  -66   -4   46   -4  -16    0   63  119   12  -18  -10]
 [  87   72 -155  -57 -136   19   57   -2   12  -39   31   -2   63   16 -172    0   39   49 -162 -132   38    9   10   37   31  -95   32   31   48   44   82    9]
 [  13 -150 -105   74   43  -16   21  232   44   75  120  -41 -214 -160 -222  113  110   -6  -35  -52   75   96   46    7  185  -35  225  121  127   -1   69  128]
 [  73 -102  112   65  -45  -35  126  -26  -82  -78  -55 -131   82   32  -55 -207  -65  -15  198   96   98 -265 -229  -68  -30   69   10  -52  140    9  214  -19]
 [  18   92  -87 -144  184   14   94   53  -49   50  -50 -248 -208  109   24 -120  -35   54  -16 -168   35  134 -108   57  -17  -97  -54 -116  153  -27 -143   -5]
 [ -73  -93  -62    4  122 -110  134   20  101   68  -71  -39 -135  -28   15   57    5  -64   56   20  -56  -60  -33  -77 -127 -139  -59  126  -13   28  100  -99]
 [-131  198  -39  -80  -54  -73   63  -44  -54  156  -10 -220   88   -7   50   40  254  -43   -6   98  -98  197  -23  -45   40  -79   92  111    8  214   60   -9]
 [-100   14  -99   -6  287  -81  118 -109 -119  -26 -103  -42  143  -47   57 -135   60  -40   37  188  -54   37    8   75   37  165  151  -87  161   -1 -184   -9]
 [ 158  -78    8  144   86  -39 -149  124   19   72    6  178  -16   55   34  357  208  -37  132 -138  -81   41   63  117   50   -6 -118   63  191  -52   59  134]
 [ -96  -36   50 -160  -57   -1   18  128   67  -50  -62   -3   32  -30  -51  109 -134   53   86 -111   40   23  -14   22  -87   44  -75  -53  -28  -80   46   61]
 [ -47 -173  -92   40   55  -63 -100 -215  127   89   87  -35 -103  -98   57  144  -70 -133  -30 -161  -87   31  244   74   43   59  -67  -91  -14  118 -167 -230]
 [   3   20  -44   13  -54  -62   58  -68  -88 -227   20  161  110  301  -50   -8   34   84  -27  134 -185  -64  -86  -74  -69  150   88  -19   61  176   61  -16]
 [ 144 -152  -13   94  -17   68  -68   68  -26 -185 -109   20  -48  -10    9 -147 -163 -213  -79 -192  -85   58   53   50  -20  180   24 -106   -3  -19  -34  175]
 [-123  142   64 -100   18   23 -168  -39 -209 -101   -7   43  -48  -31 -280   91  -74  -86   71  -46  -77   22   17   41   57   68   51  -16 -156 -185 -112   74]
 [  67   70 -191  174  -59  -94  -43   15  -44  -19 -108   69   35  -86   44   81   83   36   14   32   42   76  -64    8   51  -56  -33  143    6  -33  112 -138]
 [  78  -57   24  -72  204   67  100  141  -79  175  107   25  175  142  -77  211  -25   79  -97   55    5   33   95   58  -85  -47 -202  -52  140   38  107  107]
 [ -15   47  -13 -131   53   68   20  100   53   71   39  -28  173    7  -38  -58  138   95  -40 -144  -85   76   18  -75  -52  -77    0  -31  -24   66  113  -26]
 [ -24   38   12   33  -98   17  125  -75  -91   89  -20  -33  -85   97  -13  136 -213   62   35   25  -17  -45  -43  -43 -148 -140   84  -41  -12  158   10  -81]
 [  11  -56  -20  -55   23 -268  151  -83  120   24  -43 -143  -48 -121   12 -121   33  121  -91 -134 -126 -200  -10  -81 -218   24 -179 -130   48   10   -6  103]
 [ -55   47  -27  166 -107    3    8   79  -52   -7 -159  100  -25  -63    2   78   47   85  -16   12   36   48  216   40  -36  -69 -120  -51 -129  168  112 -110]
 [  91  197  -55  -26  173   44  -27  101  104  202   50   -7  -21   56   75  -46   47 -125  -81  -46   71  -44   86 -144  -49  -15  -33 -123   26 -248  -21  187]
 [  22 -108  -71  -39   28   38 -153   99  151  -52  -15  -90  -53   98 -188  -25 -102  226  -42   84   91  -64 -164 -150  125 -178  -78   54 -136   83 -114  -19]
 [  22   -7   16    4   -6 -138  -54    9   64   47   64  -85   20  -83  -28   26  135 -129   42  -14   -1  -17  -39  261   78  141    3  -35   11  111  -74   79]
 [ -51   14   30   73    3  -50   45   74 -132   33 -131  -57  100  -80 -193   50   56  -63  -44  239   44   -7  -43  133    8   56  -18  176 -111  -54 -101  172]
 [ -59 -191 -129  -99  -17   71    9  152  -67   42  -10   36  -39  -76   77  162  -56  -87  -18  172  -52  219  -16  292  -26  -68 -159 -201  -46  -19   68   37]
 [   9  -23  -48  -45  -95   74  -13  -10  -61 -160  -35  -63   51   71  -15    1  147  -63   23  182 -194  141   49  107   44   96  -27  -27   90 -115  -96  -15]
 [ -32 -197  -79    6 -177  -14  -57    2   83  -88   35  142   58   55 -169  230  116  118  -23   13   70  -60  269   10  -32  -31   84  -53   33  -99   25   55]
 [ -43   16  -15  -16  150  103  -21  -73   60 -229 -161   90   20 -150  -31  -60  173 -133   36   24  131  -67 -146 -111  -24  181   13  -43 -100  142   74 -112]
 [  47 -152 -155   84  126    8    0 -144  -89   57  127  108   67  157 -123 -111   24   44   -9   59   89  -11  176   38  106 -118   34   73  -46  -31   37 -176]
 [ 208  -27 -122  -14  -49 -164  182   57   72  118   99    9   -2    2   44  107 -144 -209 -130  -95   -9   69 -208   77  -90  102 -128   68  -19 -120  -77   89]
 [ -42   21   59  125  143  -91  -52 -115 -216  217  -25  190 -116  134 -108  136  -86  -44   24 -103  177  -76  -41   33   78 -116    7 -159   96   75  -51  -84]
 [ -39 -105  -20  -65  -42 -162  168 -178   12   12  152   33   19   59   96   87  -49  -48  -13   77  128   17   74   -6   81   22  -62  105   40   46  -52  -41]
 [ -15 -179  -53  118   61  -12 -131 -132   89   52  -64 -136   65   54  -30   35  -43  102  -53   75  103   26  117  101  -88   38   -4  -66  163  162  145 -134]
 [  53  -62   35  123   -5   66   83   73 -157   62 -156 -112  -37  -39  -48  166   -2  190   25 -162   18  105   22  -25 -114  169  -94  -41 -190   -7  -32   65]
 [  80  185  -52  103 -127   -1  -64  153   -9 -147   14   60  130  -76   91 -238  -87  -53  119   68  -49  -56    2   55   55   62 -218   56  172  -22  -31 -147]
 [ -34 -216   87  113  197    3  151  -29  -23  114  -76   -4   77  -82    6   84   81   30 -138  -86   65  -66   11   11  -85  -69    1 -195 -105   66  140   31]
 [  46  -22  -48   63  -72   49  -59  -27  -99  -36 -146   76   50   13  -12 -198   34  102 -156 -225   14  144  102  285 -222 -225   -9  -64   82 -101  145 -127]
 [ -54  144  -10   21  -65  114  -12  -28  -53 -156  165    9  -14   74  -45  -39  -41   81  -62 -108   19 -119  149  -82  105   -3  -74  -14   32  304  -51  112]
 [ -81    4   16   93  172  107 -141  -44  -80  -49  102   76  250 -115  107  120 -175  -30   45    7  -43   51  -21   57   83 -328   54  -53  -16  -51  115   50]
 [  36    2 -235  -86  -49  -79   52  -37  -64  -33 -245  127   18  -37   80  -16 -107   14 -219  152  124   29   16 -228  -85 -185   17 -167   20   -5    7 -172]
 [  73   -3   66 -116 -128 -159  -63 -191  -38   27  100  -25  -26 -119  219  -17  101   26   77  -97  -60   74 -126  -78  142   62 -173  147  142   74 -202   39]
 [  17 -135  -23   57  -41   99  -98 -111  -57  -77   80   22  133   81   78  100  138   75  285   56   -4   70  102   49   62   24   71   36 -146 -209  -50    5]
 [  -8   70  -87  -44   -4  -88  123  -63   53  -35   -4  -67  -62  -81  -55   93   20   64  -83   76    1  -22   86   93   20 -161  111   59    9   87  -79  311]
 [  52  134   -2   88   36  -91  -51 -162   21 -211   81  166   75   53 -181   89    0   51 -162  -93  -71   79   54 -200   79 -123  103   75    5 -101 -179  116]
 [  13  -70   72 -166    8  150  -63    4   44  128   96  -16   -5  133  -41  -57 -123 -122  -50  -69  -64  -40  -56   19   15   10  -93  -72  -26  -99   92  143]
 [  53  101 -131  -14  -31  -24   47  143  -16  -43   87  158  -76  197   58  -15   20  129   46  -70  134  -12  133 -158   46 -125  115   30    9  191 -189   52]
 [ -20  -90  -81  -10   75   99  -30   53  -20  142   -9  244 -182  -33  -41   13   58  -74  127   17  -26   90   47 -100    8  -54   90   26  120  161  153   88]
 [  -7   96   -5  -64  125  100   94    7  -67   76  -35 -162  -60   -1  -64  -63  -40   -7  103    9   98 -136  149    6 -211  -55  -28  -32  -14   64   61 -105]
 [  98  -58  -60   17   65  -82  205  115  -84  167   59  271  -68  -53 -119   79   51   26  -48 -151   36   65  -53  -59  116   32 -108   80  -78  -91  -96   46]
 [ 117    1  -18   70  -50   26  -47 -212 -175   18    2  -40   87   76   35   41   19   67   94  -35  -22  -29  -88   84  -39   38 -160  -50  -10  -38  -28  -31]
 [-107  -75  175  132  -84  125  119 -200 -126   57 -153 -117  -43   16  -29   34  -24  -53  192  -81  -76   -3  -51  168   -4 -173  -36    7  178  -42   86 -112]
 [ -24  -57   62  -66   67  -31   -8  -13  121 -198   93 -121   19 -210   65 -230   31  -19   83 -235  -28  110   49   25  -84  -19   16    3   32  -25 -160  -11]
 [  45  -39  -59 -161 -140   75  -24  -76   21  -23 -157  -11   42   89   33   -3  -55    9  -53   46   32   77  124  153  -23 -126  124 -188  -20  193   21 -179]
 [ 140  -67   21  222  -12  150 -133  -92 -145  -52  -88   31    1  119    4  103  159  -42  171  167   22  102  156  -56   64  200 -157 -214  -58   79    7   58]
 [-103   10   25   45  -16 -139   83  -32  118   24  -31  -50   11  -60   69   25   64  238   37  -45  -24  107  -29    2   15 -126 -272 -133   36  -67 -178   74]
 [ 174  -61  -75 -130   66   58  -40  174  119   22   -5 -120  143   -5   67   97  -10 -123 -180  -14   -7  -20 -113  -37   33  -72 -246    3  146   65 -194  104]
 [  57  -75   44   80   40   45  -55  -14  -52    3    5   80  194 -139   76   48   25 -114  -44  -27   82  105  -24   -2   19   33  -82   97  -16  -95   78  109]
 [ 116  -93   89  165 -104  -44   23  -51   97   28  -79   64   41 -119  -32   -3   23  115   22  -84   58  -88 -107  -10  -86 -106    9  120   66 -126 -117   32]
 [ -36  142   51 -123   62 -211  -13   51  144  130   62   30 -115 -208  -47   39 -101   50  -70 -198  113   80  -23   74   49  -67   18  -89 -108 -196  -67   18]
 [  85  112  144  129   33  -34  -28   42  -78   35   84 -113  -71  -33  -88   -1   31  105   -8   98   21  -73  -13  -16 -100  -76 -136  -30   81  -75   95  -55]
 [ -59   36  103    0  140  111   29  139  148  -35   15 -124  -56   34  -64   -1  -12 -246   35  -52   60  -41  -65   46  -37   12   60 -118  -20  -39  108   19]
 [  62   59  -14  -49  -43 -251   60  149 -177  -53 -246   81   70  115  -55   -6   19  -11   50 -134  -33   52  -70  -38   64  134 -178   -1   49  -27  -46    0]
 [-156  -18 -104 -140 -144 -107 -144   14   48   17  152   38   11   47   33  106 -116   45  -35   37  -54   64  -51  -53 -225   64  -75  -84   54   94    4   47]
 [  20 -137   68  -69  -46  -36    3   70   41   74 -134   68  175   69   -7   38   86  -11   66   69  -81  -47   31  -63  161   18  -58  141   12  104  128   48]
 [ -65  -41   11   25 -104   31   77  -60 -100  125   34   97  -84 -183  104    4   66  -15 -247 -133   78   57   98  -70  112  105   88   12    6  134   39  -57]
 [  24   97  131   -9  -36   37 -107  138  -37   75   25  -71   56  211 -146  -70   54 -123   67  -44 -155   18 -182   28  305   -5   59 -114  -19   -9  -22  -58]
 [ 139  130  -84  129    6   69   96   24  -91   27    3   64   34  110  -25   63   30 -154  -59   85  113  163   60  181 -288  -37   31   57   74  -56  -14  -76]
 [ -78   21  118   47  -45  164  -91  -79   44   89  -27  -37   68  289 -118  -40  104   82   19  -69  -60  -72   25  -89   17 -102  -18   22  181  -88 -119   27]
 [  64  -75   87  -79   50   17   96  131  253  -19   47  -63   23   57   64  -18  -23  154  -79   -5   17  -74  148 -168  196  -57  -51 -152   23  -89   80   36]
 [-152 -131 -118 -160  146  -28   55  -13   41 -132  -30   59  -11  175   60   72   91  -38  -87 -125   34  155  -41  101  -67   86  -24  -57 -100  172  -39  179]
 [-152   87   27  -66   75  -86    3   49   71   73  248 -105   -3 -141  -58   25  117  -90    8  -84 -129  -28 -137  103   15 -192  119  206 -115   -9 -260  110]
 [-160 -203  -20  163   36   83  275  -35  249  207  -51  165  -28  -63  -41  -64 -111  191  132   25 -106  -70   35    2   52 -127  -79  -37  -76   18  -57 -138]
 [  73    6   86  231  -27  -77  136  135   11  100 -118  -18  -79  -76   74   31  -59 -105  187  129  205   -4  183 -216  -34   21   66  -98  -52   31  156   -4]
 [  40  -49 -141 -100 -101   53  -55  120  -58   55  -93   85  -48 -133  -70  -87  -17  154   -6  -82   93  -28   59 -124  -19  -92 -138    5  -73   13  155  -75]
 [  34    2  -86   13   41   37   52  -10   22  -75   37   52  -23  -62  -52  -34  -10  178  159  -79  -29   39  -57 -297 -195   85 -150   52  -88  -60   31  182]
 [ -10  -42 -114 -164  -57  113  114   54  187  -66 -184  -25 -127 -135  -90   41 -137   74 -104   51   30  -48  107   43 -196   -1 -161  105  -24 -292   62  -32]
 [  23 -161    5  -21   97  102  159  -28  204  -60  100  -24   35   78   97  -26  -63  -20  142  146  -27   21  181  -24 -113   92 -118   94 -215    8   21  209]
 [ -41 -198   44 -112  211  -52  127   -6   31    8   16   -8 -172   40 -108  -70  -23  131 -116 -129   70   98  -65  -64  175  -88  -67   81  -69 -110  -11  -37]
 [ 133  -68  -95  -65  -33  101  -23   11  -79   33 -137  190   20 -117    8  -32   94   79  -34  155   35  -88  289 -162 -127   53  196 -176 -197 -163  114  -59]
 [   9  -20 -110  220   82 -116  196  155    3   99  171 -106 -160   -5  -53  -82  -41  -65  -83  161  -51  -46  278  -90 -134  -11   92  -57  157   71  -57    3]
 [-136  -80   54   28  -24 -185  -93 -104   30 -189  105  -15  -76   14   35  137  -33  108  -40   80   64   23  148   96  -55 -177  196   61  -45  -85  128  -68]
 [ 174   12    3 -122  142    6 -315   51  -59  -99   30  -24 -136  -43   55 -147   80   82  249  -54  -89   30   39  -85 -220    1 -112   48  -11   20  105  124]
 [  -2  -70 -115 -324  164  -72  -92  -20   16   33 -145  161   10  -69 -186   -5 -100 -119   64  -74  -56  184   26  120  -39  -71  -27  -15  -56  154  -56  -45]
 [ -32    4  -80   29  246   -2  110   10  100  -63  -10  -32  -21  -28  210   96   43  -14  -30  -37  139  149  287 -141   68   24    5   15 -186  128   73  -91]
 [   6  121   10  -96   88  -92   91  -22  -98 -171 -102  167 -147  137   65  -40  -10  106  -43  -75  -73  134   -4  -87 -196  160  110 -127  -96  -70  -47  113]
 [ -94  -47  -50 -129  -17 -184   70   89   71   42  -42   26  -63   90  -24 -119    0  -16   65 -247   42   -2  108   80   12    6  -90   20  -65    2  -68   27]
 [-205    7 -110  -40 -158  189   48  -94 -102   30  -27   54  -33 -194   38   47  -95  -48  153   87   35  109  103  -44  -21   37  102  -63 -105  161 -107 -109]
 [  89  109 -172   -6 -103 -142  -22  -14   -9  131  -70  -74   94  -89   97   34    7  -93   97 -118  111  -20   69   22  107  -39   20  -54   29  228  -79  -30]
 [ -14   56   95   25   47  -10  -52 -158  152  -74  -80   46  167 -130  191  -79   -6 -153  -89   -6 -147  -56   -1  -20 -142  -61 -201 -163  177   34   89  -10]
 [ 107  120  -78  122  -77  -31   -8 -104  -53  -64   33  -59  122   13 -152   13  116   14  -47   25  134   51   50   62  192 -174    8  -67  202   14  -96   51]
 [ -11    4 -102  -69 -104 -149   -6  188   17   96   -3  -19  -71  -93  -38  -78 -175   23  115   40  -33  146    4  -12  -84   66  157 -182  148 -124 -126    3]
 [ 184  -47   13   28 -222  -27  -63   54  100  -81    7  -30 -126   69   82  -44 -327    9  -13  172  -14  106  202   80 -142   -1  -85 -110   42   65 -146   25]
 [ -60  -22   67  -39   74  -43   87  257  -99   20  -29  -68   23   -2   33   96  159   37   26  -30 -114  -32   -1  -28   -8  -23  -83   44  -31  -27  -53 -231]
 [  41  110   58   88  -63 -128   35   73  -91 -191  -59 -258   -8   66  -21  -35  213  -16  -33  -14   40   68   74 -164   28   44  -13  -84  -56  -45  182    6]
 [  13  -55  -17  -88  -11 -143  -77   70 -127 -117   -7  -29  -10 -155 -102  -66  110 -203   58 -228   24  -57 -155   -8  121 -111 -194  108   57  -70 -121  -78]
 [ 197  155   16  184  100 -138   87 -109   83  -67   29  110  -57   89    7  -68  -29  -61  -23   27   -6 -149  -34   93  -16 -246   47  138  -55  162 -101   -8]
 [  98    1  -16 -130  -24   14 -110  132    8  -92  133   -5   11  -65  -87  -20 -146  -20 -177   -6  101  101   25 -152    0 -190 -101  166  105  -93  -64  -53]
 [  74  -25  165  -83   58  -61    5  124    9   -3   60 -103  122  -28   96  -77   17  167   20  106  107   69  180   33   28   18 -205   57   52   29   76   23]
 [  41  271   -2 -187   23  -71   28   75  -21  -33   82 -207 -129  -34 -158  116  115  260   20   -6    8  -38  216   91    2   29   42    4  255  -92    7   33]
 [-148   75  213  -44  -73   45 -100  -30  -35   45  -90  -76   10  -77  -69   71   10  135   82  132  -23  109   68   92  -37 -115  -69   42   -9  133   64  -15]
 [ 104  148  -58   30  199 -125  -52   37   46   45   43  -37  127  -62   72  212  -52  251  333   39   43  -30    5 -249  -84   22  -36  -30   82   53 -159  206]
 [   8  -20 -216  -77   39  -49   97  -89   85   -1   73  -29   36  134    8    7  -74   98   -8   55 -144  -13 -126 -172    4   19 -176   -2  -70  -23  -65   28]
 [ -15   -2  -29 -162 -155 -111 -136  -12   22  -82 -144 -109   69   17   80   56  171  143   48  -53  -23   62  -34   13   59  -82  -58   66  -11 -169 -170 -136]
 [ -40   83  -94   94  -80  113   68  144    6  -49  -69 -183  -26 -132  -56 -140   11   51 -152  -58  -95   49   73  -27  -20  138 -160   86  -46   59   11  -34]
 [ -97   26 -132   -4   69   79  -82    6  -27  174  127  -22   67  158 -171 -138  119  141 -103  -69  -27  157  309  -44  -14   19  -10    9 -107 -225 -207   59]
 [  34  235 -210   88  -85 -106  101  162  -47 -121   55  169   66 -117   47 -125   46    8 -119 -118    9  -27   58  -49    9   63  -73    5 -100   46  110  -52]
 [  16   34  -53   33  -98  110    8  -13   14  112   95  -62  -53  104  179  137  156  -17  -61    2  -99  134  125   55 -113   16  122  -94   54  -26   12   33]
 [ -87   25   36   -8  169  201   37  -25 -165  118   73 -200    3  126   93   35  117  187 -103   53  -80  -43   -3  106   70  -42    9  -58   64  -97  -88 -165]
 [  22 -144 -133   47  -47  -43   -9  196 -160  -83   31   -9 -100  134 -257   85  -19  -31    5  135 -128   19   59  149  -50  -45   16    8  -16 -118 -170 -105]
 [-112 -103  -63 -170  220  160   16 -116 -138    3  -38  -91  -68   65 -111   66 -182  -83  177  -38  -55  -77   94 -134  -33  -14  -41   92   28   44  -16  -39]
 [ -59   24  -34  105   32  279  -84 -140  -85   49   23  -87   25 -138  -15   35 -163  -99   42  126  103  -42  -67  116  155  159   78  -85   34  -72  104   37]
 [   5  -79   83  114  124   98   35  -52   -7  184   20  -34  -92  105  -51 -157 -101  -26   22   41 -110  104  232 -166   -2   66  128 -117   97   72 -113 -112]
 [-124  116   26  102   47  131  -58  136  -95 -187  104  -29   -9   15   99 -131   88  -16  -96  -65  188   31   45  -36    5   31 -116  -68  117  180   85  -86]
 [ -73  105 -102   76   83   85  -55   26 -127 -139  -66   44   90  -58  142  -38  -76  -41   -4 -109   75   83   81   18 -111   56  187   -7  171 -157  -10 -113]
 [  62  -56   31  -97 -107 -118   58  -20   26 -119  140  -41   86 -208  -70  -36   83  -81  156  -18   -3  -33   22 -196  -27   57   59   -4   85   24   13   35]
 [  89  164  -21  215  -47  141   81   27  -68   99  182   23  -33   21   24  -74   -1   68 -111  123   87    7  133   36    8 -164  -55   52 -201   99    2  -36]
 [ -17 -121 -201   12   25  -40  -21   92   18    3  -10  149   68  -46   84   16  152  220 -147 -303   12  162 -176  132  -80 -160  -83   -4   27   73 -120 -116]
 [  39  -97   19  -66  -47   33   -9  129  -25  -89   11 -162   81   42  -14 -123   71  -64  -61   33    8 -112 -102  -17  -16   63  -30 -289 -130 -101 -116  -18]
 [-248  -38   64   69  -14  104   33 -201   59   -2   15 -238  142  -12  112 -135 -246  112  183  -67  -40  -99 -109   -5    0   48   75 -105    7 -160   70  -20]
 [ -85  -37 -135  -35  116   -8  -54  124   -1  -28   10   -8  -86   19   24   86   94   25  -67  106   68 -165 -150  107  131  -14  -83   -8    9  -38   66  -68]
 [  96 -111  -77 -166  253 -138   79  -98 -188   25    0  -11   79  110  -31   57  -82   54 -142  180  -65  -13  -97   61  -30   96   21  -37  146   96  128  -11]
 [ -36  124 -101   60  -40   66   90 -155   61  131  -68   22 -117 -106  113  -86 -134   91  244  -58  106   71  -67   16    8  -31 -143  139  -16   94   -2 -178]
 [ 184  -23    4  -72   -3  -11   -7 -151  -63  -10  146   47  117  101 -120   84   64   11  -29 -113   -8  147  -50  -40  160   76  113   97  119   45   29   89]
 [ -20  -52   47 -139 -121   -9  -45    8  229   18 -125   54 -193 -109 -104   80  131  -16  -93   11  -67  -59  126  -30  -73   39   -2   40 -118  -52  176  152]
 [ 112  -81  -77   30  140   10  -17  201   57  -73 -162  -97  -74    8  -18 -104   53  -92  -69   74   74   87   70   90    0 -165  -69   28   55   53    5   92]
 [  -5  102 -157   42  144 -265   -7   78 -236   78  -50   29    9 -116   88 -105 -167   67   93  -65  -76   -2  -23   64   68    2   63   50   -3  -12  -23 -125]
 [  45   58   43   65    0  -43   96   69   67  -76   90  130  -71 -207 -223   23   81  121 -113  -32 -134  122  -44  -99  -26  -74  -90   54  -22  -35  -31  123]
 [  11   14  -64 -198 -138  -47    2  182  -21  133   27 -146   62   93 -190 -105 -114  314  103   93   50  133   26 -121  232 -107   14 -150  106  -96   31   59]
 [  95   80  -34  -76  -47  -89    5   -3    0   18  -27  -14   77  126  -21  118   35  292  221  -81  -16  -32  105   83  199   -6   78  145  -10   49   43  -94]
 [  92    3  146  168  -97   87  -77   97 -140 -208   13 -131 -114 -198  -12  -73  140   59   -8   93 -145 -157  -96  178 -118   70   -3  -57   29  211  -25  -11]
 [  21   60   45   21  -63  -66  -71  157  -97   63  -20  -52  -54  -17  -39   41  152  -79  -23   63  140   45   93 -207   -9  -62   28  -32  147  -93   47  109]
 [ 140 -107   33   43  111 -116 -189  166 -198 -162  182 -204  -12  -52    8  -80   99   81   92   92   10   50   84  -21  -59   91  101  127 -137  186 -133   67]
 [  40   69  -41    3 -195   -9  -65    7  -57 -132  109  -14  239 -195   97  103  137   89 -114   56  -91   50  -21   38 -164  -45  -90  -28  -65   97  229  -13]
 [ -63  230   -2    4  201   56    1   92   96  159 -177  -78   -2   20  102   70   44  124  161  104   41  -40  215 -174   41 -188   81  -14 -129  119  -13  283]
 [  70   29  -42  -71  -35  -42  -79  215  -79   39 -130  -78  -20  194 -214 -274   46   26 -100  -11  110   21  206  -18  -35   60  172  -55  -48  171   28  179]
 [ 100   12   35   67   82  244  -24   30   -1  -35 -186  -53 -151  114   51  152  -12 -178   41  -12   43  147   90  -89   13  -71 -110   69 -204   41  148  234]
 [ -54  213 -109 -197  -80 -243   73  -78   70   64 -106  279  103 -210  -67   -9  156  155    7  101    1 -204   71  128   -7    7   -1   14  116  161  -23  131]
 [ 122   98  107   10 -186  -94  -40  112  -30  210 -114  -40 -100  116   85 -115  134  -64   -9   -3  -27   35  191   28    2   62  122  176  -77   73 -128  126]
 [  -9   61  137   51   10  179 -131  -42  -46   86  123 -105   14  -69   33   45   69  202  -27  -21  -80  186   12  -40    8   31  -30    9  -59   26   71   36]
 [  87 -145  206   25  -51   93  -56   64  -83   84  -10  -28   23  105 -116  -39  -60  117 -192  -71   13 -117   34  -15 -105  107  317   -5 -100  212  -51   33]
 [  44  -63    5  -20 -172   55    7 -239  117  124   67    6   45  -53   96 -228   11  -14 -163  -59   46    4  -96 -101 -103 -136   46  -81 -258 -114 -217 -177]
 [-274   90 -102   68  221   65 -128   17 -286  229 -153   65  -36  -47 -115   45   54  -19  -71 -119 -122   58   87   56  110  -34  134  219   -8  -43 -120  120]
 [  21 -108   -2 -125  262   90   21    0 -182 -157  -46  231  -38  -31  -36   69   57 -149    7 -180  -40  -22  -56   12   65 -107  149  -42   83 -134  -10   71]
 [  88   83    4 -162 -106  -25 -100  124  -38  -13 -147   56 -244 -137  136  -84 -131   20  -64   -7  -46  157 -122 -100 -105   32  119  110  116  -86   -9  191]
 [  10 -114  -26   13  -64   63   68  -98  245   29  -27   72  -40  -94   -3   68  -72   55 -115   20  194  161  164   13 -311  -41   27   75    8  -22    7   39]
 [ -13    2   80   -6  -42  -62 -170  123  -15   68   10  -61  158 -118 -196  -78 -127  -27   68   10 -146  -51   85  -49   28   98  196   39   61   30   84 -154]
 [-122   47  -48   82  104  -77  168   27   55   97   58   13   19  -30  -70  128 -118  -40  191  142  161  -88 -108   43  -84  -40  -30 -132  -42 -112   34   33]
 [ 126   -8  114 -221   -7   87  -34   27    3   10   15 -182 -153   38    0  -97   68   -1  117   19  240    9 -125 -150  176   -3  -19   97  -45   13  117   15]
 [ -73    6   -9   42  -90  140  101  118  -38  -15 -104  106  -80   58  -80  -31  129  -59   -2  -22    1  145   63   51  -15  142  -97  300   45  131  -41    9]
 [ -52  -41  -96  -98   89  -17 -111   -7 -101 -163 -226   76   78   15  144  109 -108   67  -69  125  -54  104 -204   13  141  -88  -44   -5  202 -129   16  -92]
 [ -12 -107 -183 -162  110  -97    1  144  -36  -23  -70   31   43  134 -172   87   -1  -32  -29   31   94  -34  109    5  103   19   -1   45  -57  -79   98   51]
 [ 123   36 -126 -141 -159   26   64 -221  -21    2  -76  -93   73  -27 -108  112  -24    1  -58  -60  106 -107  132  122  -85   97   60  -61  128  -32  115 -139]
 [  74  -36  110  -81   -3    9  -58  123   40   36   41   13  112   65    5 -111   59   38 -111  138  150 -131  105   72  -36   37   85   75   21  -93   33  -45]
 [-163   23 -178    4  -23  -67  -18   23   36  -54   95   16  340  122 -195   12   -7  -85   49  -47  -50   52  -34  -80  237 -177   21 -156  -52 -125  135   55]
 [ -94  -31  -63   72  -87  -28   94  176 -106 -133 -134   85  302   63  -57 -123    9  -66   -3  -70    8  279   -3   84  -66   23  168  -55   73 -122  170 -151]
 [-176   25  129   11  114 -143   42   56  -57  -34   32   34   -9 -107  151   71  110 -135 -156 -120 -119   32 -224   64  -45 -142   96  -86 -184  -84   80  198]
 [ 117  121   36   45  -16  -84 -105  152  -57   61  -34  -17  164   46   32  126   87  -59  179   39  -57  122   44   -2   27   98  -36 -129   74   17  -98 -162]
 [  47   -7  113  -90  -99   17 -123  116   18   78  112 -176  210  -54  178   47   16   60  -18  -97 -203   96   55 -127 -119   55  -26  227 -114  -72 -105  -75]
 [ 253   76  -68  131   64   49  -40  101   36 -142   41  -74   -9  215 -159   92 -154   54 -102   93  -83 -132  -76 -146  -11  133   52  -57   31    3 -119  -14]
 [ 168  -54  -25  149  -91   51 -215  128  -13   46  -15  -49   24   56  157  131   79   -9  -82  -69  -30   17   71  193   60   29  -26   70  198 -202   67    4]
 [ -92   35  -25  -42   32  -48  -49  192 -114   23   80  -69   89  165  278   -6   11   68 -108 -132 -183 -142   50  -46   -2  167   95 -174  138    1  -32 -167]
 [   0 -171  -79   94  -78   86 -129   45 -149   12   32 -327   41  -42  158   -4 -123   30   55   34   -9   -1  -30    8  -67  107  173 -185  181  -20   82   64]
 [ 118   63  -98  -14    4  102  -20  184   86   97  -29 -151  -39   38  109  102  -47  154   -5  -35  170   15 -176  -13  147   91  -87   -3 -181  -90   15  -12]
 [ -56  177  -12   59   75    9  -31   90   14  -97  101 -160 -103   47   34   34  -10   53  150  -23   99   90   44   15   48   -5  -74 -334  257   56  -29  -50]
 [  43   22   61   49  113  -58  -33  189  122   57  -13  109   79   -6  -68  -13  -13   88  137   49   78  121 -173 -149   60  -23  -24   -1  -84  125  -10   32]
 [ 181   40  124   45 -132  204 -131    6 -115   30   13 -186 -221  164 -145  -83  -61  -93    0   56   41   -4  -17 -150  -58  171   -1  -86   -5  -23   -6   48]
 [ -88  135  -96 -118  -75  -53  -70   39   55  148  -30   38  -23   22  -86   41  -87  101  -15  -12   27  -69  195   35  -97 -111 -151  -34   71   49   32  -11]
 [  22   21   73 -200  -18   -4  -74  120  -58   16 -154  131  -47  106  -24 -121   56  -26  -19   35  -35  203   12   46   43   29   86   89  -21   39   48    4]
 [-102  -15  -20 -102 -103  154  -30  -79  -67  -10 -106  150   -4   60    3  -15  -50 -304  -28 -103  226   23   58 -112   63   34  -51  169  -16 -120  -52  -68]
 [ -89  126  -83  233 -168   16  -14  198    0   56  -42   14   12   45   10  -52   65  212  104  -36   23   68  -19 -319   48   99  -20  -17 -121   69    7  -58]
 [ -54  -91   59 -173  -57  -67   67  122 -201 -168  -98 -193  -49   38   74   78   99  258   44 -107 -191  -69   31 -104  146  -18   16  -25   58 -107   31  -45]
 [  61   45  121 -188  -18  -52 -114   58  -76   24  -77  -19  -66   57  132  -96   45 -181   -3  125 -247   18 -212   82   29  -34  214  192   31   97   46   39]
 [ 166  -18   49    7   -4  191 -229  108   -1 -135  -38  -73   20  -61   23 -104    1 -165 -193    3 -102   80  148   31   37  -89  -65  144  -77   21  -35 -131]
 [ -26 -106  124  -62  -67   48   72 -102  -96 -114 -229  100  -71   65   34  -35  -89  -93   17   -8  115   17  -54  -12 -124 -143   83   37  -40  -77 -142  173]
 [ -92 -102  -14  144   20   40 -125  -88 -153   24  116   40   20   -6  -34  168    4  -58   46 -117   37   58 -165  -82   22   39 -126  -34   -7  -47 -100   45]
 [-212   77   31 -156   61   83   87  -55  152  -11  -34 -174  -97  -18  -58  -84   87 -108 -190  -62   16   66    7   80   31 -102  -50  -97  -71   42  101  253]
 [  29 -101  256  -49  -51   39  -16   21  116   -5  -43   88 -103  145  223   28  -13  -26   14  117   27  190  102   42 -102    7   57 -147  -65  185   18  -83]
 [  -1  -43   22  -40  181  -64   12  106  -33   98   84  -11  -94   44 -181   99   31   -5  -24   62   77  -77   24   13   63  -96 -139   27 -146    2  -43  -47]
 [  12   -8  -42   72  -54 -109   32 -115   83  -40   76 -192 -123  -23 -113  105 -226  138   -7  121  121  101   15   44   50  -40   34  -18 -176  -64  172    5]
 [  11   26   71   53 -267    7   84 -108   32  -46  -24 -149  -20   86   68   25   71  -41  -87  134  191   13   25   33  101 -202   74  -69 -132   50   10 -133]
 [  91  -28   22  103  -35   21  163  155   66   22 -150  -16  178   36    6   51 -131  111  -32  -34 -102   37   30   -2  -46  104 -145   36  -77 -103  -52  -94]
 [ -57   33   31  -20  -45  -85  -93 -160   37 -117  142  114  -79  -93 -104   12  -86   37  239  -96   18 -107   68  -38 -195 -210   48 -107 -218 -139  105  -42]
 [  -5 -285  -15   84 -196  -59   28  218  -98   38  -17    2   47   62   25   41   80   43   19    3   36   40   71   78   59  122  -75   14  139   85  250   85]
 [  -1  103  -56 -200 -196 -111   82 -116 -152   -2 -162 -173   88   52   89  -14   40  159   77    8  105   32   30  -39  -88  -42  -30 -194   16  -97   45   25]
 [   6  -59  -78   32 -183 -108 -199   24 -100  -39   13   88  -32  231  150  119 -221   31   20  -78  114  -92  119 -107 -112 -246   29  -36  -15  -64    2   28]
 [ -57  312   86    6  -38  119  -13  145  -75  -15  101   60   47  119   88  131   36  -27 -142 -131 -215   42   24   63 -101  -87   62  -91  108    1 -117 -208]
 [   4    1 -158  251   89 -217  -99  148   22    3  -88  -56   49  115  242  140  -58   88  133    2  -45 -142    5  -40  -31  -31   27  261  167 -192   51   84]
 [  35   86    2   50   10   70   13   37   90   49   -5  -62  122   33  131  181   48   99  -89   -2 -196  -17  -85  210 -126  153 -105 -196 -204 -118   34  161]
 [  -6  108  -97  -83   84  -48   -4  -12  -50   35   90  -28 -126  136  272   55 -106   71    0 -113  252  -91  100   14  -22    6  104  -21  -44 -205  115  113]
 [  35  108   -8  -51  157 -107 -209  -47  -44  218  113  130  151   58  168  109 -137   22   -3   33   55   60 -205   76 -142  -82  -42    6 -126 -129   10  -68]
 [  76   -4  -61  -65  -35   39   43   76 -169  116   39  182   88  183  207  122   -5  197   57  170  109  -10  -40   30   71  -77   37 -164    5  -30   93  -11]
 [ 132  -48   62 -149  -68  -50   73  254   67   94  148  -87  -23  203  221 -119  -83    6   -1   -7   -1   26   23    2   59  165  105  -82  260   34   26  126]
 [  43  -45  -63   62  -62  116  -40  158  -92  -92   59  172 -111  140   60   78   12   72   15   88  150 -140  -60   41  -36  122  -42   55   -1  -91  267  -97]
 [  -9  128  -61  -60  144  179   30  147 -123   60  225   57  -15  -17   57 -140  107 -252  -77  188   45  -44  200  162  117  -42  220  -15  101   74  -41   14]
 [  18  127 -251  263  -58  -73  145  -55   85  119  -70 -136  116  208  150 -107  -15  -60  -53  -45  -92  -10 -133  107   32   70   50  110   98 -102  -63  -21]
 [  -1    0  -60  -79   18  -83 -117  172   20   58  -69 -153    3  -48   26  -89  -75   11   50  130 -139  -84    9  -94  131   66   73   -6  134  124  -13   34]
 [  42   28   75  -86  -16  134  -98   98  -18   73   86  152  130  -57  -80   23   -5  106   39   70  -98  162  -49  -38   20  -11   92 -102  151  168 -123  -57]
 [ -38  -73 -141 -109 -167   40  202   -6   20   51  -92    7   61  157  -40   45   22  -85  102   57   59  100  238  -23  102    1  169  -63   48  -16  -58  -29]
 [  30   85  -90  -66  -23   83 -160    3   48 -144 -129   56  -71  -73 -183  -46  221   39  -58  -94 -154  116   82 -146   48   18   18  -68  110  -70   78 -123]
 [   3 -139   79  -19  -91 -112   99   52   80  -28 -184  -29   11   87 -158  -70  -77  108 -254  -48   42  -44  -29  113 -114 -129   51   20   12  -68  -47  203]
 [  31   78   60   40 -169  -41 -112   29   12  -13 -104   95   14 -150   23   38 -213  106   75   68 -137   50  102   20  -25 -109   79  -19  -34  113  -14  -20]
 [ 112   18   20  210   59   17  -57  -66  259    1 -143   10 -160  151   -9   -3  144  -17 -199  126   10   25    4  -30 -179   31  -80 -179  -83   86  -79   -1]
 [ -91  -77  -82 -140  -19  -59    6  -19  106  161  129 -333  154  -39   31  -16  -49  128   33  -18   -2   37   61  -46   13  -60  -11 -228  -73 -181   81  150]
 [  50  -29   15  -30   49   -6  -36  -22  112   15   29   37  -59   20  203 -142   14   -1   30   90 -104   95  -17   57 -183   58   45 -192  -54  104  -97  -78]
 [ 192   49 -100   29  100   78   32  116   67   59  -52   17 -197   18   35   73   62   70  -43  198   45  -56   56  -29   57    2  -76  -53   46   43   20 -192]
 [  42  -97 -100 -111  -59   25  -61  -56   33 -126   31  -74  -84   53   89 -192    3  -91  -90  205 -120  130 -141  122  -66  -67  -37  -72  -28   38  113 -209]
 [ 200  -11  -29    4  102  -30  -90    5   13  110   71   -7   55   23  152   62  147 -102  107    5   41  -65   49  -94  -25  182  -33   37   50  219  -62  -93]
 [ -44  -88   29   66    3  -24   60 -198 -126   26    4   17  -36  -26   66  146  160   -9  188  -22   -4   24    5 -122  -66   81   90   66  140  106  171  -22]
 [-121  116   45  -59  -58 -106  -64   32  -59  -82 -139  102   77 -132  -92  -60  -34   38  -66  -34  126 -140  -88  232  164  125  -69 -230  -37 -102  106   42]
 [ 133    6  -13   -2   27  -57    3   58   34   41   57   33  140  131   77   86  -68   -5  -52 -163   51 -169 -106  -62   -1  -26  105  -22   95  158  -89 -195]
 [ 153  -17  -57  -18   13  -77  -12  110   66   77  -50   -2  -13  201 -118   40 -126   27  215   33   49  283  102  -79  -75   75   68  144   99  -19  136  -29]
 [-187    4  -70 -138  -84 -110   88   42 -102  171    2   -5  -92  -21   10  141   97   47  -85  -48   21 -176 -164   23  -97   46  -21  -34  -28   86 -132   19]
 [  64  132  -36   27   -6  135   88  -52 -149   15   -2 -142  -63  294  164    4   31  108  130  139  -33 -125  161  -95 -176  -31   36   25   89   73   52   76]
 [ 154  -19  105  -86   30 -170  128    9  131 -100 -223 -100  118  204  -53   67  -24  -72 -149  -25   91  -31   66   64  -89  127   34   28   90  -36  138   65]
 [ -33   15   65   32   46   93   89  120   79   -3  -19   70  -18  -46  137  115   74  -44   14  -55  -69 -126 -105   15 -141    1 -115   80   11   52   78   89]
 [ 204   41   -4  -27   85   69   72  -18   60  -40  142  -39 -129  111   60  238  134   36   20   80   86 -176  -63  108   42  121  -46  -59 -200  -63  -16  -91]
 [  80  123 -145  181 -113 -136 -230   85   44   -8  -56   46  148   31  136  177   -5  124  -32 -128  111   27 -201   94 -148   61  -32 -187    6 -111   55  -67]
 [  54  136  -31 -110   51   80   31  144   19  -73  227  132   24   81  171   99  -76   66  104  167 -139  -80  -91  -95  -15    6   15 -129   10  127  -27  154]
 [ -80    5  -13  -30 -205 -159 -201  -79  -15  283   58  261   41    9  -13   28   -1   67  -19   82  261   80   31   70 -125  237  -28  119   57   93  130  187]
 [  47   -4 -176   58   24  -57   16  -43   34  127  323   12   11   41  154  114  -71   21  -83  -31  146  -10 -156  -22   36 -177   84  -26   17  -74  -25  -14]
 [ -91  234  223  -12    4  -45 -127  -84  175  157  146   98  159   -7  -43 -149 -211  162 -120  117 -140  -70   22  163  225   -2 -114  108  -31  144 -121 -116]
 [ 139  -12  140 -117 -125   -3   17  175   63   75  137  127   77  -10 -105   33 -203   46  -12  -91   41  122  -65   97  -18  -53  -36  151  161 -150  -25  -64]
 [ -68   21  -54   75  -87   73  -54   41  -72   88  170  143   72  -41  -49   10  -13   43   96    5 -104 -120   84   26 -101  -22  109 -132  -86  -55   12  115]
 [ -38    0 -109  103 -101   -8   -3  173   52  133  -81  119   92 -106 -150 -193 -162  103   -7  -87  -67 -116  -57  135   65  -59   70   27  113  -80    0  135]
 [ -73  189   39  -17  -80   57  -75  -14  105   40  -26   61 -111   63  -54   43  212 -189  203  -52  -49  102 -112  -77  -27  -59  126  220 -115   -5  108   91]
 [   1   42  105  -99   -8  140   95  178   73 -170  181 -115  120  103  -78  -21  -67   55 -123   46  -23 -105   58 -106   80  201  -11   60   20 -259 -130   70]
 [ -32  -57  209  -60  -47 -161   24   60   83  -45  133  100 -168  138  -20  162 -265   36   10  -74  -73  -46   -1   40    7   71   15  -23  114 -108 -126  137]
 [ -45  -32   17   45  -22   55   25  -20   21   -4  155  -69  -63   26   62  -93  -31  -20   32   51  -32  -31  -82   64   38    8   83   50  193  125  -66  187]
 [  50   53  -67   -4  -44 -176  -59   49  -23  -99  -32   41   64  -23 -195  -49 -240  177   60   71  -75    5 -102  137   64   36 -152  -93  -72   82  118  143]
 [  96   49   69  -63  -43  -46   14 -126  -45   63  112 -258   42   25  -16  113  -58 -129 -104 -131 -127  -90  -55   94  111   78  150  -52  158  -59  118  -58]
 [ -28  -15  190 -194   20    4    3  -38   31  -78 -116  -12  101   50  -96   45 -156  -29   44 -203  -32   51   47    8  -73   24  158  -45   92  -62    8  -13]
 [ -11  150   12 -156   40   59  -36  -59  -68   -9  -50   42  -48   60  -25  -19   -6   99   29   35  -19  -36   67 -176  -36  -37  -56   26   16  199 -126   11]
 [-173 -150   16 -103  -11 -174   11   -7  -49    8  115 -175   68  -14  100 -128  102  -50   26   19  -63   34 -145  120  -97   22  -67  161 -129  -86   61   93]
 [ 188   57  -42  -47   85 -109   85   22   18   81   30   91  -48  -23 -108  -34  -80  235 -163  -31  -34  -27   63   36   50  -86   53    7   93  -76  -30 -170]
 [  94  -56  -48  -15   11  -98 -162  164   65 -149 -108 -129 -175    5   55    9  103   -9   45  -95  255   63   40  140 -216  -95   79 -244 -255  -31  -20  -34]
 [ -71 -147   60  -90 -117 -114  154  238  -95  -23  -37 -211   88   82  -53   88  -40   36    7   75   16   13   37   27 -228   89    1   80  -34   91   89  102]
 [ -98  104  -27   62  -13  -67  -70   -7   44    1 -147  130   92    6 -194   91  114  -67  -20   37 -168   83  -45   85   73  128   30   37   36   45  -96   53]
 [  40  -37  -32  101   60   -4  113  -41   56  103   32  -80  100   40  -79  -98  195  -36   79    9  -72  -95  137  118   17  -89   73 -203  238  -88   50  106]
 [-105   28 -230   77  -55  -18  143  -83  -62  -59  -84  -37   81  101   77   60  104    4  308    1   -5   59  -31  272   22  229 -113  177 -108   69   47  -13]
 [ -65 -208   43   30  165  125  125  -85   50  175   52  -17  180  112  158   54 -182  -41   33 -236   88  -43  -97   38  -32   41  233  -86  -33  167  118  145]
 [  91 -345   91 -108  -83  -10  268  273 -180   55 -175  -40   35  -34  120   52   -3  -72  -86  -63  131  -36  104  115  -49  -25    2   93  -64   42   38 -104]
 [ -36  -63   69  -33  -97  -51  139   96  159   72   35  -34 -233   58   79  110  -91  130   41   58  113  149 -223  149  -37  -24   27  -85  171 -123   36  153]
 [   0  -54 -115  106   49  -49  111   56  -71  202   63  139   30   36   41   62   83 -175  276   71 -158   64   58  -98  -39    3  163   61  124  126   66    9]
 [   6  209    9   23    2   13  129   45  -13  -31  157  196  164   48  -62  122   96  213   23 -104   29  -99  -99   96 -174   54  -49  -95  179   53  -78  -26]
 [  40  -10  -56  -55  -25   21  124   69   39  -29  154   -1  -36  105  -33   86   65  124  192  -71   64   -5   50  -46    0 -222 -145 -258 -152 -110   61  -18]
 [ 193 -194  -56   36   75   39   78   -2  180 -135  102  217  188  190  -83  -50  227   63  -51 -117  185   19   47   65  124 -119   -1 -107  -44  -78  148   66]
 [   7  113  -94  239  -78  -28   50   56  118    7  171   10  -32  -24  -57  -77  114  131  -44  -38  109   15  -35   82  -87 -294  -36 -109  -92   92 -155  -97]
 [  31  174  -41  164 -117  -29   68  103 -126 -115  -26   79  141  119   31  -60   85   66 -165  -87  104  139  -54   32  -75   -3  -45   60   68  198 -123  103]
 [  15   81    0  200 -267 -193 -102  124  119 -172   70  257  140  -74  112  -57 -131   21   98   69  114   23   -7   29  -74   43    7  136  113  -98  -50  200]
 [  45  189   13   67 -136 -124  -35   34   19  -31   22  134   31  -49  -71  -38  187   61   55   97  -85 -127  123  114  -17   49   78 -177  -27  200  263  167]
 [ -77   35  125  102  -81 -175  -37   -7   -4   64   94  -12  164   21   37  115  -47   12   72  129  -14  188  122  -56  101   26  -98   59   90  -38  -62  114]
 [  39   80   62   15  -98   39  -54  122  202 -136   62  137    1  -40   -7  119   91  -41   14    9  -77 -154  -53   41  -26   33    1   39  114   54  155   35]
 [ -72  -11   91  -29  -55    1   48  -57  115   15   69   -2   -6   92  -82   10  159  -81 -260   45   77  -47  -44 -209 -142  246  -27 -205  152  -29   36  144]
 [ -50 -182  226 -111  -24   -6   79  132   81  158 -137   23   14    0 -226    7  -84 -144  -21  193   27  -81 -200 -107   70   54  -45  183  -60  -22   67    2]
 [-107 -109   23  -55 -152 -195  162  -24  -19  -33  108  -84 -119  -32   45   -8   57  -57 -102 -146  -19   18  162 -105   57  167  -89  -29 -179  -79   37  -64]
 [ 140  -83   65    1   20  -44  245   49  -92 -133   90    7   76   28 -173   34  -27   46   43  106  137  -45  -85  -70 -106  -75    3   76  -98   -2  -30 -173]
 [ -19  -35 -105 -121 -182  -51   92 -158  145  -79   15  138  -83  166  100   60  -40  -46   12   13 -146   32 -130  100 -137 -232   44  -13  109  -30  -25  -85]
 [ -36  -36  186  -42   24   -3  -76  -89  105   29 -299  134 -107  -95  204  112   -1  107  -36   68  234  -43 -199   37 -189   39   49 -158  -75  185  -53  -42]
 [  15   45   32 -247  -91 -119   91   17  -47  -24  -12   57  143   12  -94 -129  -32  104   35   -4  -89 -144   93   51 -185 -202  189 -136   77  -52  -25   89]
 [  40   37 -268  186 -145  -94   19  -76  183 -159   -9 -171   19   32   91 -237  135  138    1   -1  -13  168 -260  233  132   47 -204  -22   16  102  -12 -253]
 [  30   85  136   16   90  -36 -116  143   57   24 -123  -41   78 -160   43   12   42  -18  -84   48  111  120  -23   62 -190   55 -188   21   82   61   76   67]
 [  76  133 -106  116  -14   87  -94   -6  -26  169    2 -133    2   -1  -50 -146   15  102  -44   53  104   93   55  -95  -51    8  -94  -78  -29    4   69  -12]
 [  36  -77  -58   37 -232 -241  198  -14  -13 -162  -30  -99    5  121   58   52   30 -171   70   90 -127   40   74   11  -40   41  -37 -165   -8   39  150   20]
 [  -6   83   88   36   56  105  -27  -35  -46  203   58   -1   81  150   32  -37  291  -26  205  -23  194 -104   21  -15   61  127  103  -97    7  -27   30 -124]
 [   2 -154   68   -4 -116   13   82  158 -122  -73  -13 -182  -10   58  129   57  -90 -301  143 -110  -63 -120 -150   70  -95 -123  108    3  -46   13   21   78]
 [-205  -95   82   39   54  -36   51  -97  182   64  -73 -167   26 -118   32  -40   88 -195   50   30    2   13    3  -83 -151  -84    6  180    7   10   92   77]
 [  45 -181  108   12  -91  -20   64  148  133   28  -64 -123 -186  -48  -98   57    8 -192  171 -102   12  160  -86 -114  -63  -86   73  135  113   14  -30  -31]
 [ -66   26   36  -46  209   36   10  103 -160  226 -125  -64  137  128  102   85  104 -231   49    8   97   44  -62  126 -155  -56  188  -24  323  173   62  -78]
 [-143  -79   88  100   52  148   10  -30   79  -22  -64  -68   89   24  -11 -152 -131 -205  -33  -19   47    4  -26    8  -64  -39   57    6  102   -1   49  -18]
 [   7   11  -28   -2  -22   27  121  -32  133   45 -117  -44   41  146  -74  -86   37 -321 -125  -37 -133 -119 -125   26 -103  136   -6  255   52  138 -108  -40]
 [ -20    3  -75   16  -51 -153   -1  -88   46  -75   60   77   45   50  -54  -10   74 -131  -22   58  100  -18   27   13   19  185   22   23  -62 -112   19   82]
 [  27   68  149 -131   99   42  -18   -3  139  -97   91   77   39  -34  -71   53  -15 -200 -154   33 -117  -22   32   10 -186   68   65  133  -16  -41  -95 -139]
 [  -4  115  -57 -100   61  -97  238  -56  -40  -83  167  314  130   83 -155  134  -82 -102  105   37  229  147  113 -130 -141 -153  -45 -150   43  108   67 -108]
 [  28  118  -27    7 -233   65  327   10   17  -29  204    5  -16   59   55  161   -3  218   -2    3   26   95   77  193   54  -11   28   59   41  -96 -153 -104]
 [  12    0   59  -69 -159   72  -40   34   70 -329  -10  107  -80    9   91   92   20  -20   47  -56   28  -61  -46  180  -64  -54  100   89   10  131  222 -266]
 [ 168  -41   86  -83   37  -79  -12  -83   88 -125  125   10  169  242  -11    3  -20  112  -42   39  169  -69   39  -82   72  -54  128   46  -83  -79   45   52]
 [  94  167   36  136  -44  -26  -64 -176  -69   37   53   73 -110   15   77  116  -67   34  -74 -132    0  -76 -103   93  -58   15 -134   83   37   45   19   12]
 [ -56   -6  124   83  -50 -156   44  -15   90 -127  173  -67   76  134  -52  -91  -17  -27  -16    8 -220   36 -150   22  -53   19  184  -25   24   10  -43  221]
 [  -6 -100 -129   70 -285  -59  176    8  -41  -51  262  118  131  -73  -31  104   -5  187  -46  202  -37  137   57   88  108  156  191  -47   95    0  -17   58]
 [ -75 -186  -65  232  120   98  108  114   15   46  -37  116   11    4   68   34  210  -33   23  -44   66 -132 -108   46   54   41   61 -178   31  -30 -122  126]
 [-207   65   29   24  -41   80  116  -75    8 -109   31  -61   83  209  142  -60 -117  -80  240  -31   96  -23 -148  -90 -135  137  -26   29   -7  -22  -25  162]
 [-102  -36  -70   30   74   16 -139 -112    8 -175 -144  146   44  -69   -9   37   74  -42  -95  -43   -3   64   99 -159   89  -42   41   43   52   91 -125  -34]
 [ 121   49   82 -240  -61  -63   97  -80   44   -6   69  -30  -87   98   15  -86   38  -40   38   58 -134   46  -54    9   13  141    7   18  -76   24  -92  105]
 [ -21  -73    4  -11  -27  -23    9  -62  -73  -89   91  -95   65  -12   90 -247   68  171   -5  119 -155  101 -107   55   62   31    9  -38  129  -46  -21   64]
 [ -40    3   39 -229  105   88 -119  181  -34 -168 -213 -147  -87  108   67   54  160  -84   27   40  112   41 -227    7  -79  -14  -57 -100  170  109   99  -33]
 [  11   50  232  137 -215  -90   22  -87 -121   23  135   -3  106 -163  -86   54   27  321   27   31   83   25   24  -97 -134  110  219  -28  -63 -196  -46  139]
 [  95  -62   77 -107 -161  -75  -59   80  -83   13  -43  -38 -249 -100 -107   36   -3 -104   48  -36   34  -74 -136  -15  -50 -151   38 -305   -9 -215 -162  -92]
 [ -64  -74  -52  -25  -80   28   56 -132 -104   26  -15  238 -111   89   47  -77   18  113   26   -4  212 -156 -173   40 -194  149  -54  -45  -32   46  -43   52]
 [ -18 -230  -72   50   85  -57  -56  103  107  -17   65   47   54  291   74   88 -156  -53  -10   77   70  -38  -65 -177   62  167    9   14  -81   35  -53  -99]
 [  23  -82   -9  -94  -81  -55 -124 -105  -67 -194  153  -86   65  -37   46   73  -80 -146   87  -29   28  -53   24   68  -80    4   90   12 -142  -39  135  -23]
 [ -39  -59  -30  -25  -44   15  108   54    2 -218  -27 -164 -103 -144   63  214  108  -73  158 -170   93   -1  -42 -173 -112  -56 -111 -177  -81   28  -61 -105]
 [  86  -83  117   20   76  133 -210   20  -58    7 -152   49   74  222  127    8  -51  -97   15   10  193  -55  -63   -8   32  -10  -62  -95 -167 -104  179 -117]
 [-187 -201 -206 -116  -84   12  -58 -104   83  -37  -86 -186  163   96    0   53   29 -231   14  194   91   79   47  -13 -159  112  107   15   34  134   31   34]
 [-173   25   55   15  -96   42   31   48  -90  -85 -176    3   77    7   72   85 -138 -115  -37 -228  -68 -125  -99   11   29  -94   -6 -252  -14  -26   83  109]
 [ -52   77   32  196  -66  172 -134  -22  -21  -68 -146 -193  254  130  -35   60  -47 -182  -26  -98 -183  -42  -14   41   74   59   27  103  112  -30   87  100]
 [ -18   -9  -27  137   62   46  -63  -18  -80  -59   22   13  -30   85  -42 -154   84 -345   34   60  -95 -181   47   58   -1  122   17 -104  130   94    0  -34]
 [ -59 -161 -144  144  -17   11   24  -35 -165  104  117   78   95  -61   84    8   11 -219   79  -51   29   50  119  -43  -34   -2   52  -38   23 -113 -150  160]
 [ -46  197  -66   45   27  178   92  -31   75  -21  126  169  -31   31    0  -22 -145 -278   30 -113 -233 -211   42  -35  106 -108   -3  199   18  240  -91    5]
 [ -61  -12   57 -150 -125  137  157  -84  -45  -51   90  -70  -73   34 -130  300 -111  -63  -34   56  -32 -103   -6 -127  -48   87  -79    1  -20   86   57  367]
 [  57  -90  -32  -98   20  -12  169  -36   86   -1  153   69  141  150   20  -54 -119 -118 -300 -144  109 -157  131   53  -69  -60  -92   27  140  -20    7 -107]
 [-113  110  -52 -168  -64  180  -16 -126   -7 -192   99  171   -6  -80  -65  168 -157   46 -194   32   -8   -5  -30  -41   78   63  -16   58  113   66  -24    3]
 [ 109  -70   91  -35  -71  143   51 -102   29 -143  166  -30 -159 -130 -127  108  -97  122  -32 -176   30   91  127  -41   43 -130   97  -56  101   44  209  -73]
 [-173 -223  -86  -69 -174  -55    6  -36   14  -91   57  -18 -215  -48   12   64  -51   21 -108 -140   16   76  100  137  -43  -17  197  115   73   53  105  101]
 [  25   42 -126  106 -154  -77  111  160  -31 -192  177   50  219  -33   -4  -10 -146   41  -16   71  100  227 -191   30  102  -81    2   17  -59 -232   -6   26]
 [  41   64 -101    8   64   53   16 -244   -6 -127  201  -60   36   77  209  189 -127   42   11   41  143   30   34   36  176 -175   83  106   48   52   43  -43]
 [  29  -19  -30  188  128 -287  -17    7 -102   -5   36   35  -56   -1  137  -18   29  -35   88  120  -10  -11   -1  219 -101   22 -147  105   66   98  -47   95]
 [   9  130  180   47   63   84   84  -89  -78 -248  217  -48    3  -32  115  -21  -15  100  188  133    3   23 -315  142 -114  -20 -151  155   26   47   56   12]
 [  -2  -28  -99  250 -124   37  -21 -104  -39 -163   50  100  -66   45    2   31  -33   31   47   12   58  -84  -32 -107  -58   11   57  130 -200   -6  -92  114]
 [  -8    8  107  -84    9  144  -96    9  -47 -186   53  -19   28 -102 -128 -154  169    7   88   89   41   25   58   57 -216   -3   32  -69   82  -98   39 -133]
 [ -85  -63   -9   17  103 -127 -183   27   12  136  -29   -5  -50   27  -61 -128  -75   64 -111   63   59   70 -161  -74  -49   -1    8 -155  -17   83  -92  -66]
 [ -58  -92  -58   17 -188  -18    6   16 -117   65   19  114   36   42  -30  -42   45  131   75 -229   64  150   65   83  -61   75  -83  125   30  -57   -5  114]
 [  43  -31    4   18  -49  -29 -143   46 -168  -47   17  -76   37   93   63   -3   83 -111 -122   11   22    8  -17   16  -13  -54    7    3  -34  -15  -26 -214]
 [ -77  -56  121   -1    0 -108   12  -67  165  160 -147  126  141   32  -25  106  175   54  -16   22  -92   14    0 -106    7  -77 -112  106   43   29    5   12]
 [ -37  -45   91   79  -82  -26   41  -74   70  -20   43  -57 -148  -32   -4   47  -88 -121   58  -83  -27 -162  -13  121   64  -46  -22   64  -55   63 -139  -27]
 [ -70  108   -8  110  -47   46  -27  -72  -29  132 -159   12  -35   38    0  -52   66    9  -73 -194  111  -28   25  -49  132 -137   -3  160   32   28  -38  -93]
 [ 146 -115  -59  -79  -47   41   20  157 -150  -41  120  -13 -132   20 -113  -36  -46 -169 -135   20   40   -4 -102 -106  113   94 -112   88   39  -51  191  163]
 [ -19   72  -53   72   28    3 -169    2   54    6   69  -88  -87  -87  104   69   40   43  -57   74  -60  -57   37   85   -5  -29   68  120  187  -57   61   32]
 [-127   36  -90   90   16 -109 -101 -137   35  -31  102   65  -69  -18 -140  180  -21 -145   10   15  -78  -35   -3  -14  -54  -44  -49   90  124 -211 -179   37]
 [-145 -147   73  -87   48 -171   -5 -104   94   55   79 -119 -252 -122   58 -101  108   25  111  -95   41   42  -33  -91   11   39  -50  132  -35   92  167  -22]
 [  23  -90   86  -60  -55   83  -54  148   51 -160  104   29    7   -8   19  114   73 -181 -105  -99  113   23   59  138   63  -24  -47 -110   42  168  -96  -23]
 [-178 -146  -23   78  142    1  112 -139   65 -139 -181   68  -66  -55   21   28  -85 -293  -53  155  114  -89 -225  -80  -73  217  -16 -209  170    1   32  -65]
 [-165  -73   36  127  -95  141  121  -70 -118 -147   29  -16  104  -42  231  -56   -2 -175   10  132  -26   91   79  -26  -21   -8  298   93  114  123  125  215]
 [  60   62 -164  -58  -24  -61   67  -96  -79  -68   22   82   31   11  171  -46   -4 -193  -67    7   -7  167  -23   93  255  -74   69  -59  159   84 -138 -226]
 [ 103   -9   96   42  -31  145   58  -31  205    1 -102   48 -124   23   26   90  -26  -64 -140   55   18  110   73 -110   66   -6   74   70   27  -28   46   -2]
 [ 109   70   80  -28 -175   57 -148  106  -50  153   18  151 -169 -134   -8  230 -115 -149  131   23   33  -58   48  151  200   93  209  -70  -33   53 -155   24]
 [-335  -54   99   11   32  165  104   24  -42   37    3  -42  -27  -91    5  -57  -64  -13  107   -7  -97 -117  196  -38  132   13   99 -113   -6  -62 -101  195]
 [  26   58  -59 -109  -18  103   53 -334  108    9   -6   49 -181  165  -54  188  -25  -94   81   30  -25 -174   74 -168  159   95  -60 -157  122   95 -132  113]
 [  53 -120  -41   21  -34  248    0   69  -66   38   87    1  166    4   49  146    3  -86 -273  -75  -23   35   77 -111  136  -55 -257  169  -12  140    3  -10]
 [ 148  111  -90 -145   34  153   29  -33   24 -237  -23   74  182 -140  -60  255   30  -91   19 -279   41   15    1  -17   45  -33   56   -4  137  105  119   51]
 [  95    4    4   34   11  -79  -38  -69  -96 -229   -6   74    1   94   75  224   71   -3   45 -113   -1  -98   70   62  215 -116   17 -225   99   41 -113   14]
 [  70 -287 -107  -71   87    6  -25  -90   49  -43    0   39  224   90  113   -8   70  -69 -146   -5    2   11 -106  235 -114  -98  -21   22    5  114  215 -116]
 [ 174 -143 -131   83   90  -41   63 -136  178  -39  171  -79 -174   89  -63   53   55 -167   67   11  177  -29   18  138  -92   77    5   73   98  -52  187  -12]
 [ -10   42  104   14   72  138  -22  -35  -48   26    7 -251   91  102   17 -175  -32   85   12  -52 -121  -18 -147  158   30 -121  253   25  117   21   47  193]
 [  77  -17   20   34    8   -8  -23 -170  -89  -69  105  -29   38   87   54  -56  -10  -26   33   17    7   95   30  180 -178 -163 -108  -53   26  106  173   59]
 [   4 -131   47 -248   59 -220 -213   -1 -161 -156 -112 -170  125 -117  -68 -102   -2  114  101   76   86  -80    4  -10  -30   44   -7  206  159  -18   21   73]
 [  11   90   24  187  207   41 -102  -47  166 -376   61   -9  -14  226  193   -1   28 -134   -2  150  -85   21   72  131   44  -92  -37  -54  180   38   33  -87]
 [  29  158  127  -53   39   -8   33 -142    5 -190   46 -143  -12 -152  150 -135   44 -237  -60  196 -143   -7  -60   -1 -111  -30   60   86 -228  -60  -78  287]
 [-115   35   89  -67   75 -193  -40  -86  -62   23 -130  122  -12    7   17   66  -27  -72   50  119  -89  -61 -147 -137  169  -14   66 -220  -16  -29  130  265]
 [  95  -34  -20  -38  142    8   29   33   82   41   94   85  115 -176  -46   20   71  122 -152   28 -105   87   -9  -71 -202  -12  -59  -18 -159   31  -16   55]
 [ -33  116  -81 -116  -61  -89  121   42  -47   32  -22  -33 -300  181  -70  156 -121  137   95   43  -35   54 -111   49 -154   73    3   92   38    6  -38 -136]
 [   3   17 -191    4   56   46 -102  -73 -110   33  -72 -123  -82   48  -58 -308   79   -8  304    6   12   23   75  191  136   13  -78  -67 -104 -154  -38 -107]
 [ -74   36  -73   67  191   60 -104   32  133   89   -1   69  123 -200   76   67  224  -97   77   81   76  -58  193  -25   11    2  -16  134 -198  -20   66  -72]
 [  -8 -261  -15   15  -57  -62  -69  -23  -19  -71 -110  -41  -95  -55  -86  -93   72  -96   11   78  -42   66  -47  113  143 -116   -8  100 -180  -76   65  -12]
 [   8 -155  -84   92   22  -26  105  -10   92   -2  -62  -77 -125   45 -131 -174   26   59   56  -57  -16   85   69   53  -61 -123  -79   21   59  121  -22 -146]
 [ 165  -41   -2  -63 -104  -87  -93  -46  -60  116  127 -122   -9   17   51    8   -1 -143   50  -45   14  -23  -75  -12 -140   18 -244  -36   48   99  -92  -49]
 [ -46 -144 -116   72   21  -46  -11 -114  -77   39 -123 -134   68  152  -56 -113  142  -94  135 -135  -70 -262  -80 -126  107  151   68  285  -27  -16   22 -112]
 [ -34   61 -136  189  -52   12   74   26  185   84  191   14  -67   50   80   79  -66 -133  -76    1   26  -86 -138  158  116   72   46   35   -2   58  -65 -226]
 [ -22  125  -23   22  -12  -36  -70  -64  155  -90  -31   96  -71  -63  100  -38  -50 -253  165  -48  -41  -12  164  109   -4  -13  146  178   20   11   53   48]
 [  53   65  127   27  -85  -84  187   45  -80   41  -91   -8 -151  -40 -176  122   91 -370  -30    8   95 -112  -99  -18 -121   24   81 -149    5 -137 -180   61]
 [-110   56  -21   13  129  -20 -153  -27   77   63   40   39  -80  -66   95  166  -14 -164  -84   58   93  -66 -147   12   47  -91  189   12   19  -99  202  -89]
 [   2 -155  -91   79  -14 -120  221   62   38   19   25  -38  -58    4 -126  -71  -95 -222  208   68 -113   89    4   22   85   47  -34  194  150  -65 -109   18]
 [ -89  -27 -189  -84   39  141    2  -54  112  -70    0   63 -128   36   76 -154  158   16  112  139  -30   16  -56   21   83   50  181  188 -194   -4 -233  -55]
 [-150  -42   32  183  -62   24   37   76  107   43  -51  148  122  136  120  -74 -236    5  164   38   -4   60    0 -141  247  -51   51  231  155   86   -6  105]
 [ -12 -154  273 -159   21  -76  100   36   46   60  -22 -227   58 -103  117  -64    5   70  -72  -90  -49  288  138   -3  169  154  115 -179  -60  -15 -142   15]
 [  31 -194    6  -81    8  120  -89   79  -39   60  -56   40  -10  -55  259    0   40   83  -11   51  -41 -123  -17    7  143  256  -44    2   61   42  -38  166]
 [ 251   80  -52  -90  -92  113  198   19  -93   50   45   22  146  -38   -4  106  -76   -6   64 -113 -118  -23  125   48  290    2  -14   36  188   19  242   67]
 [  29  101  -67  158  319  250   76    8  -12   34  -76  -35   -2   21  -18   61    4  -98  -33  -42   -5 -116   -4  181  110 -142    6  -26  -66   22  -34    4]
 [ -16  -44  -64  200   -6   74   -1  -86    2   67  111  -31  -90   -5   26  117 -121  -86  -10  -75  -60  -85  164  290  125   56  -14  -36    1   79   26  -86]
 [ 215  -64  -19  -62  131   57    4  -51  -47   37   11   33   43  -24  119  -92  -14  108   -3   29   35   -4 -110   50  336  -16   -3 -114   28  114   55   43]
 [  56 -105  150  -75   86  -24 -149  211  -61   41   84 -108  -60  -21   79  123 -206    7  143  -75  -84  167  137   95  114  -22   57   51   91 -123   26  -95]
 [  38   18   16  109 -163  -37  164    5  -59  -32   36  -54 -178  -20   82  188  -80  -92   57 -115  -31   67   47  219   22   35  112  186   80  102  -54    7]
 [ -85 -155  139  -12   60  161  -84  -53 -119  -24  -25 -136  -11  151  -58  195   19   19  124  144 -328  -24 -131  -17  -28  -58   56   56 -107   73   94   85]
 [ -88  -17  -93  214  144  162  153  -11  -23 -177 -181 -130  -25  -23  130   77  -83   60  -62  178   -3  -19   38   33   92  -55   49    8    9   50  123  -41]
 [  41  163  -78   57   40 -130 -102 -135   43   13  -96 -100 -101   34 -105   37  128   95   27  -11  176 -190 -132   74  -17  -64   89 -144   43   28  213   85]
 [ -34   27   37   26   94  -84  -15  -59  -41  111  -14   12   67 -102  -57  -34  224  -11  189 -162  -92    4 -146  -60  -26  -32   21  152  -75   -4  147 -130]
 [  67 -120   45   25   18   78   33  -57 -132   58   97 -121 -117  183    9   68  -76  -41   73  -23  -28   36 -223  -18  -27 -111  154  -51  165  -24  -27  -88]
 [ -51   46  -59  -52   86  -51 -229   17    5  -23   88   10 -233   51   94    8  -98   71 -148    0  122  -46  -22 -184  -46  -80  -15   78  -40   35  -20  -45]
 [ -47  -33   -8  -63   57   28  -54   90 -128   26  -68  -57   93   39  124 -220  -25   80  -87   73    7 -192 -101   39  135   90   14  153   97  -34 -185  -59]
 [-112 -103  129    9 -113   64  -84  160 -184   43   29 -173  -20 -165   15  -49  -90 -173  -19   32   86 -139  114   34  -76   29   64 -107 -130  -46  112 -168]
 [ -85 -126 -114   88  -78 -123 -128  123   89 -119 -134 -170  189  -73  -46   72   30   36   56  -23   51   58  -49   -7  -67   85   -3   67 -141  252   33  137]
 [  65   29  133 -170 -201   60   85  -76 -229  -11  -35  180  -24   54 -175   26 -259  -91   30  -28  -65 -131  -12  134  101  -22 -118  -44   -3  -18  240 -175]
 [  78  -19  146  125   80  132   -5   68   -3 -165 -109  -45   11   96 -152 -178   45  -62   12   63  -29   62   22  -30  141   66   32   44 -141   15    1  -74]
 [ -93 -137   39  -46   -4   57   34   42   19  227   11  -33  -42  -92  -11  -62 -137  -27   47   16  -45  -41  -12  235   72  -59  -89   30   23  107   73  -38]
 [ 111  103  -79  152 -108    8  -75   11   41    9    6  -65  -75 -118 -205  -40    2   50 -101   43  -86   29  161   28   42  -88   76 -169  227    3 -117 -137]
 [ -99  -32  157   13   61  -81   63 -106   16  -45 -116   51 -118 -114  -38  -26  115 -162  -64   84   64  -67 -149   54  127  126   25   49    8 -137 -159   30]
 [  13  -25  132  106  -78   40 -284 -140  -40 -168 -155  -34  -26   30   -1  -56  -78  150   63  -66  -86  353  -63 -128  199  -76   77  -22 -155    7   76  121]
 [ -68   15  146   95   44   63  -62 -109  -37    9 -100  -44   32   82  173  -56  -29 -172  -71   82 -176   29  -46  -73   36  -47  107  -43   54   99 -138 -127]
 [ 225  -80  -48   21  129 -173  -25   40  244   70 -191 -203  -95  -24   48   95 -140 -109   54  -16   96  -14   91 -121  163  121  -47   98  -73  -13 -151  -18]
 [ -48  -73  -45   88   49  -98   59  -52  -32  106  -89  105 -240  -45  -34  -14  -32  -59  -42  143   46   -9   91 -145   -3 -102   75  -48  -11 -161 -124   15]
 [ -65  -94  -38   52   43   -2   58  100   63   -4   93  -87 -158 -141  -71  106    9  -20   66 -104   88  123   58  -96  110   13   70  123  182  159 -155 -129]
 [-137  129   55 -188  106  -57   -8  -16   -9  -32 -123   92  -94 -189  170    9  -22   92   20   -3  132  159  208  113   88  -78  134   78  -65   33 -105  227]
 [  21  -16   -2  -59   17  -73   60  -65  133  -31  -17   56 -108    2   26  135 -102  -58   24  124    4  138  -42 -149  215  156 -190  -90   27  152 -104  200]
 [  70   -8 -119  -85   76   91   12  -82  115  -41   32  -57  130 -184   17  104   46  -43 -129  -38   46   31  209   -7  159    0  -77 -145  -18 -142 -155  149]
 [  65   82   40 -174  135  155   18  125  -18   38  -95  -68  123 -159  -73   55 -311   56   38 -199 -106  -66  119   51  -15   57 -142  218   56   16   79  -70]
 [ 181   72 -112 -158   87  137  110 -159  -35   55  125   83  324  -66  134  219 -129  -52  112  -35  -63   68  -54  109  176  170  -39 -131  -11  175  -64  186]
 [  60 -118   90 -140 -140   77 -181 -141  -92  -36  -68  -17  -93   92  -14    4 -139  150   52   11  -50   92   92  140  259  -20   60   30   47   59   24   76]
 [  -5  -77  -53   -1   14  -98  119  116  -42  -11  -30  -84  -33 -128  -65  233 -110   -9   91   15   -1   21   -3  269   25   92  316    9   65 -168   20   11]
 [  57  -15  -41  -13   47  -21  -45 -151  -85 -112  -20   90   22   23  182   87 -118   90  -25   85   34 -103  -98   -2  111 -151   88   27   22  133   22   44]
 [ -95  142   91    6   22  -57 -259   53 -115  160  -36   95   45  101   36  -74   19   29  -82  -67   66   68  -66   17 -117   36  -88   34  -62   52  -25  -80]
 [ 118  -98 -127  139    1   17   48  119   42  -92   41  -23 -155  149  -20  115   -8   17   44  -52   65  -12  -75  -78  177 -106  180  115  -63  111 -165   33]
 [ -51  -31   64  155  -23 -152  -55  151  -96   57  132 -189    8  -82  -51  -80   -9  -33  -93  152  106  -91   51   35   79   -9   -6   -6   -4  -53   88  102]
 [-110   34  -13   63 -174  -28 -101  106 -142 -110    5  -72  -46  -94  -96 -165  -39 -145  115  -64   80 -148  -35 -136 -106  -92  -17   77 -204  125  198  125]
 [  12  -39   84  -52  201   66  184  144   79   53  -73  140   49   -3  -62 -161 -196 -136   30   44  134 -140  -39  113   78  -58  -19  225  -99   15  248  182]
 [   3 -109   38  -37  216   -5  130  -12   17  -16 -197 -235 -164   42 -182   60  -25  169   24  209  146   -7   41  -68  -36  -63  -32   75  105  151  -94   10]
 [-159   11   59  -23  -83   86 -105  -33  130   84  -31 -237  -76  -60  -66   65 -110   15  -53  -22  -98   56  111   96    3  176   59   15  -79  118  119   56]
 [-100    7   20  -43  -43   71   39    3  -60  -86   41  131  -39   21   17  252  -66   21  229  -23  113  -92 -330 -102  -35  -96  -33  -50  -36   -6   21   -5]
 [-113  -87   85   42   15   68   49  106  106 -119   20  -30    0  -88 -210 -161    1  -17  -28   80  147  -99   37  -35 -208  -23   82  -28 -105  173   24  173]
 [-179  -11 -188   16  -64  -89  -65   -8  -19 -154 -147 -187  110    9  105   20   50 -138  125   -9  173  -64   80   60   90   20  -10  -33   84 -106   22   99]
 [-150  120   81   87  -33  126  -51   54  128  124  145    2   -3  -65  124  -38 -166   82  108   49  -54   15  -12  -58 -107 -159  -34  100  -69  154  164   87]
 [-111   46   52   22   72   31  -51   20 -127   69   16  -89  153 -134  -83  -51 -262  118  -72  158 -121 -131  -93   50  -68  -97  186  100  -54   38 -168 -159]
 [  85  -88   59  136   10  -19   93   59   25  -33   84   -1  -79  108 -159  -94  185 -133  -41   54   53   90  -13   25   40  155  188   79 -122 -134  -51 -100]
 [  13   65    4   93  -51   73   38  135   60   -1 -238 -126    1   63  152  186  -23   -4   34  -37   39  157  -20 -108  -89  134 -122 -238   30   41 -160   -9]
 [  94    1 -128  -41   66  139  -13   65   18  -23  -12  -30  -50 -225   10   12    9  -43   34  156  -23  122  -58 -102 -172  -44   24 -218   32  -41  -75   62]
 [ -78  -34  -15   76   19   49   89  -53 -135  139 -100   14 -199  -79    7    2   21 -145   83  -49   62  -54 -137  -58  -76    0  -13  -56  -24  -62 -110    0]
 [ -75 -181   -8  168  -82  -58  139  -14  136  145   47 -123  -81   45  -96  -57 -124   41  -97  114 -127  111  -13  -31  -95    1   65  110  -79 -126 -171  -39]
 [ 123   43   25  170    6  -14   14   23 -136 -196  191  -84 -230  -59 -104 -165  -88  -60   42 -154   23   72  -92 -174  142   98  140   85 -189   -3  -99   82]
 [ -47   22  -85  142   72   25  -46 -228 -128   97  -73    6 -220 -126  -11  -28  177   83  180  104  -32  137 -137  -65  -20 -173   35 -210  107 -121  -32   44]
 [-196 -100   26 -187   67   31   50   19  230 -142  -23   30   25  -68  148 -198 -138  101  108  -30   73  -18  209  -38   43 -148  -57   32   96  126 -401   73]
 [ -23   31  -59 -125  103  -56  -22 -123   90  120 -134  -47   34   67  -43 -164    8   -7 -103   34  -58   85  -24  -49   66  -77   20  156  -11  -46   34   21]
 [ -94  -41   -1   36   36   36 -109   18  -29   36   27   59  219  -69  -34  -55  -40  221  -36  -79  -78   28  116  133  206  232   32   60   28   28   76   39]
 [ 111  -81   26 -227   -2  163 -355  -95  -51  113 -119   11  -11  -63  134  -25  115  178  125  -36  -18  -48   97   13  111   -6  -77   11   30   -9   -6   47]
 [ 126  -11 -105   -9  244  150   24  -80    4  157    2    5   99    1 -117   26   18   32   27   66   25  -32    1  146   63   96 -180    1  -70  136  -73  -50]
 [ 156  146   45 -113  -17    9  -32  -95  109  135 -143  155   77  136    0    5 -106  -20  212  -76   81  -17  -46  163  159   33  -11 -153 -101  -12   68 -150]
 [  81 -147 -107  -70  130  257   74 -140   -1 -143  113   16   32  -65 -135    4   39    7  155 -225  -33   87   -1    7    5   40  201   20  -99  103    4  -30]
 [ 140  148   -9   78  -79 -185   26   -9 -170    0   15   -2 -168   97  248    5  174  -21 -161  -83   46   56 -133  140  246  -16  300 -127   70  133   64   27]
 [  47   37  -44    2   47 -103   73 -230  226  105 -168   73    4   44   65  147  114   98  107 -291   42  141   90   30  139   49   94  108  -56   63  144   36]
 [  92  -21   64   14  -68 -145   -8  -49 -127  -61   89   -8 -209  -43  -19   19  -60   -6   -2  -90   11   15  -68   10  119   46  112  -85   -8   22  -60  -81]
 [ -74 -190  139 -124   65   27  -63   14    9   13  159  -53  -27  -27 -150  -55   -7  159  -63  -65  -51  -60  167   51  -61   49  101    5  163  -23   23  -77]
 [  60   63 -127   55  -63   21  136 -124   -6  -61  112 -120  -97  -91 -125 -109   91  -94  -78  -32   20 -126   68   33  -24 -138  -34  152  -87 -104  -26  -58]
 [   2  -50   29 -141 -155 -100  -37  -89  -19   83   55  140 -192  -13  -30   35  -38  194   45   51    7  -45   38  -75   58   88  123  -40 -137 -156 -107  -83]
 [ -79   40 -119  126   98   81   53   40  153   45  102  -18 -163   30  -48   66   28    6   70   15   30 -146   -3 -198  -13  -68  302  163   22 -107   16   92]
 [ -64  137   79   72   72   79  185   49  130 -146  -69 -106  -71  -43   24   85   53   36   37   97  107  199  100   10 -328   27  -44  156  164   39  265  161]
 [  51   42   96  -70  -33   21  -31  109   42 -126 -127  -39 -268  -36  138   45   24  -28   99   87   28 -166  133    2  -95   38  -89   59  176   63   59  -32]
 [  58  -53   -6  -92  -23    5   86   -1   62 -153  -74  -47 -130   63   47 -123 -189 -141 -122  -16  180    7 -150    0   35   95  134   76 -152  -79   31 -176]
 [  58   58 -186   -6  -78   89 -259   -6 -247  -58 -100 -194   92   20  -72   35   56  182   -8   -8   24   19   71  102   -4   -4  103  -88  -16  -31 -113 -210]
 [   5   47   41  166  105   87   33   93   -4   75  -46  107   18   97  -30  -69    6    7   67   37 -148   -5  -50  -11  106 -126 -106  -18    8 -112    5   10]
 [  76  -70 -158   83 -107  129  -56  105  -57  126   37   37  -25  -80   -2   19  -81  229   28   87   -9   25   10  130 -119   76  -71  145  138 -133   56 -141]
 [ -94  -80   47   10  156  -30  -22  -59  -77   56    7   95   25 -130   13  -90   26   24   94 -162  -19  -77   24  121  -93  102   29  158  -55  -96   29  -91]
 [ 124  -28   59 -253   77  225  -15   61  -11  151   92 -121 -227   10  -72  -23  -24  -86  -69  103  -87   13  135  -99 -246  -61   -5 -242  177  -75  189  114]
 [ 184 -161  -22  -29   -2  159  -98   18 -154  -14  178   59   88   -3   79   57   15  -30   18    8  -81   36   59   76 -132  -11 -104   42   75  -36  104   23]
 [ 121  -51  110   44   46 -127  -25   86  -90  -41 -179   70 -275  -85  131   18   45 -102   68   -3   91   64  -75  165 -262  -96   85  -22   55   86  245 -140]
 [  50   72  -31   21   97 -120  -41  -34   71 -186  148  -17   14 -125  137  -11  -74  -73  -22   45  101  114  -14   50   26  -66  186  -16  -42  135   25  -24]
 [ 115  -70   74  133  -12  206   87  -94  149  111  151 -134 -175  -22    7 -125 -292   93  -44   74 -127  170   -3   19   67  -16   67  -17  -82   15   63   83]
 [ 178   12  -35  -11  -56   48   99  -99  -22   32   70  113  157 -148  168   -1   60   63  277   92  237  -86   80  117   93   -2  161  161  -70   17 -103  156]
 [  45   57 -147  -13  -56  -70  -73  -28  -24 -130 -139   26  103   76  351  -97  -54   12  -58  -26   30  -65 -142 -103   11  -41  155   54  -86   89   30  139]
 [  86  -34  162 -110    0  -86  228 -134   67 -110   -1  177 -155  -77  137  -37   16  -26  112  -22   72   32   -7 -134  -46  147  150  -46  -95  -34 -115  170]
 [-137  -57  -12  -54  110  210 -119   74   72  -80   86  133  263   86  144  -49  -37  129   96  -52  -43   29   17   62   86  -18  120   50 -243   50  -92  194]
 [  45 -121  -60  -56  123 -116  184   87 -138 -153 -203    1  124  -21 -123  -21  -16 -102   63 -219   16  160  -48  150   92   40  -21 -153 -258   80  -33  134]
 [ 284  -14 -122  -77 -159 -105  160    9   11 -132  108  215  125 -161   44  -91  -31   35 -118 -161  -14   11   50   20  104  234  130 -105  -57  -36  -62  117]
 [ 250 -117  -57   16   12   16 -144 -158  -35  -55  -38  141  -73 -116  -93 -175 -292  -20  113   53  -72  122   98   12   48   48 -215   31  -88  126   10   60]
 [  55 -193  150   72   26 -173   69  -39  -32  -57  -39    2  154 -243 -112  -53   11 -134  232   55 -220  -93  -23    6   69  193  117 -197  157   -9 -106 -110]
 [ 255 -106   11 -216  -48   11  -64   32   -1   -8 -109 -125 -101   29   99  100   40   51   24 -160  155  -23   98  347   50   11   61   75   69  -51   -1  -59]
 [ 173  -87    6   66 -140 -127 -156   31   80   92  -68   51  -83   82  117   89  -16 -155  202   59  -26   59  -72  -91   31  -93 -102   79 -117   50  102 -159]
 [ -41  179  -53   26   -4 -136  169  -68   59  156  218  -10  -41  -50  -46  136  -23  -61  -56  -11   -6  -50  -53   90  -39   -3  110  149 -113   97   10 -116]
 [ -91  -17   43   48    9 -240    2 -148   38  112   88   44 -145   23   71  -84   64 -130  -55   41 -300    0  -38  191   54  196  139  -25 -125  -34  -13   20]
 [-132   69 -217  -36 -105   -2  104 -116  -44   50   53  -65  -44  106  -26   93  -70  118  -92  -29   78   56  108   74   65   54   56   20 -178 -145   91 -173]
 [-126  -46  -76  125   19    9   51  129   98  130   19  -96   38  -52  -46   62   33  -14  -98  126   28 -200   60  -87 -137   55  -39  -10   40  -97  135  109]
 [ 101  -53   -7  187  200  -37   17   96   24   37    1  -19  -28 -163 -165 -115  143 -129 -127   53  111   43   43  -12  -70 -135  229  284   22   50 -107   35]
 [ -53  -60    6  -19  -65   51   39  -49  -29  -82   38 -302    1 -113  126 -263 -227   37   74  -59 -121 -196 -235  -57  -85 -175   -5  -16  224  -12   99  302]
 [-116   -1  -41 -107  -66  -12  122   28   86  -84  117   29  215   -2  -53    1  -92  -24  -88    3  138  -35  -33  -72  -13  -62  -71  -56 -116   10   31  -80]
 [ -32   10  -85  -70   16   69  -47  176 -104  -35    1 -120    0   33 -187  -71  131   31   51  -48  169   73  -37  -91   59   42  103  186   30 -101   66  -80]
 [ -56   81   96    3   46   24  109  -64  -10   -2   -8  -36    5 -207  -19   88  109   19  119   99  -16  -19   47  -59  -25  -17   67 -189  -18  112  -81   88]
 [ -73  -66   92   80 -125  -11  -60 -106 -121  117  -19 -108   53  129 -210   18 -148  205  -72  104  -37   75   30  140  -50   72   60   19   26   54  143  -43]
 [  23   82   46   15   13   83   48   39  113  -60  118   21   95  -33  -35   28 -114  -48  124   27  141  -44  111   89    4   73  106    9  -46   63  -62  -73]
 [ -28   -7  120  -12  218  -61  -59 -108  -56   50  -14  -61 -148   86 -119   97 -245   -9   86  -39  -40  -16  -20  225  -25   90   -7  -52 -107  109   80 -113]
 [  21  160 -308  -83 -177  -22  191  188  133 -112   -9  161   39  -26 -206   30   57  117    8  123   93  162  167  -79    0  103  141   88  -31  152   46  -85]
 [-137   -8   16 -111 -136  132 -145 -138  -77  -85  -49    7  -72   72   60  159    2   53 -155  -11 -148 -152   15 -241 -119  -73 -180   61   25  -22 -126  -68]
 [ 201  163   -4    7   50  -53  136    7  110   85  116 -158  -40 -295 -104  -83   42   20   70   84  165  -72   97  -78  118   86   37  -76 -100  -98   49  -54]
 [-110  129  -39   31 -154  -14   53  237  166  121  -44  -28  -83  -30   14 -126 -168   93  -69   57  161 -146  -76  -69   -6  -13   55   -9   70  164  119  -63]
 [ -59   42  113  -33  -81  117  -53  -37  193   86  -27   31   42  -44   40  116  -22  118  -24    5 -144  -25   34    7 -191 -136   12   67  -14 -306   47 -125]
 [  64 -225    8   95  154  -11  -21  -59  143  -91 -148  -67 -159 -226  126 -253   94   28  -11   76  121    2  208  -82   17 -248   61  -90  204  124  -94  229]
 [ -22   84 -190  106   76 -104    2  -72   83   15   41  -78  113   80   28  -79  -41    6   15  229  -24  113   61  175   55  -91  148   -3  -84  -18    1  -44]
 [-145  -18   37  120  138  -63   -5  -87    6 -164 -152  -90  217 -130  138  -21  116  104  -26  130  -93 -154  185   15  -18 -249   83 -141  140   -4 -198   60]
 [  15  105  136   50   82  316  -41  -82 -112  -80 -266  147   91  -23   45 -108  -78  211  215   68  216  -51 -218 -122 -115 -160  -31  -84 -163  -79  100   28]
 [ 157  -22  -67   57  231  -72  172  -16  -30   65 -239   23   77  -60  172   51 -116   64   -8 -103  -64  -72  -38   -9  -67  -48  215  104  185  384  -15  114]
 [ 109  114   43   15   44   27  -67 -187  -63 -105  138  -43  151   64   -9  -55   98  -20   25 -157   21   -1  272  -64 -165  111  -25  199  112   45    6  154]
 [ 194 -164   73  -83 -145   57 -155  -48   77  -45   24  102   67  -90   -6  -59   67 -202   80  -34    2  151  209  100   96 -155   65   74   16  136    5   82]
 [ 148  134 -119  -62  -31  -42  236  -18   62   72 -200  127  134 -133  -68  -64   98   78  -25 -107  128   17   40   69    7   41  -14   62  -92  -54  -52  -27]
 [ 204   73   91   58  -73  156   -9 -184   11 -107  -41  156 -140   79   70    4   63   18   81  -29 -168  280   71  106   60   16  164  -18   72   -2  184  -76]
 [  12   83  -25    6  -68  -70   11   59  123  -68   40    0 -238   11  -35  109 -159   48  157   77  -67  -69   97  -61  127  -15   52  -87   46 -138  -15   43]
 [  -6    9  -78   31   88   62    7   -9  -99  -96   36   21   21  -31  214 -187   78   73    9  -52   55  -81   35  -34   28  -14   34   52   78 -170   -8   12]
 [ -94   89   45  -55  116  -64  170   23  -66  -39   66  -43   14   -1   37   23   16  110   -1  -24   43   58  -16  -74   73  -46  157  -77 -128  -78  -82  -62]
 [-139  -50   85  -90   77  -48 -234  -96   36   76  -65  -56  -35  -32   23   52 -170  204  158  -24  263   33 -158   82  -72  -17  184   31   -6  -64   31   -9]
 [ -27  -52  -99  223  122   55  103 -125 -134   13  -25  -44  -94   53  -38   -9 -108    6 -289  243   15 -126  135   94  149   -2   17  148  -41  -91 -134  -40]
 [  44   13  -89    1   -2   33   47   94  -98 -157 -101 -229   24   93  100  -18   24  183   43   22 -122  -49   81   48   -2  -21   81   81  -51  -10 -272 -107]
 [  74   44   16   57  155    1  218  -23   16 -183  -86  -11  -71   81    0  -30 -175   15 -117    8   70  102  -32  -83 -146   11  -54   -3  -23   35   36  -92]
 [ 128  -53  -34  -45    1   44  138  -18  -40    8  213 -186   -2 -123  -49  -60  185   58    3   50 -127  223   59   63  -33   29  -89 -190   -1  -10  -17   33]
 [  -7 -179  138  -61   82  -77  -23   63  -94   24   15  136  -37   57  -68   18 -149   67    4  -10   25  -76  -49   13   89  -20 -139    8  -73   73  -17   57]
 [-130  -18  119   25  -16   58 -139   96  -30  101   35   78 -158   30   73   57   11  -96   -1 -153 -111  -72   81   31    0   32   90  -82  -60  -83   44  -66]
 [  54  131  -15  -17  -32   18  111   16  -65   30  125 -136 -137   -4   16   56   33 -216  -47 -203   53  215  -11   18  -23 -132    2   29  -34 -146  -83 -176]
 [ -65    9  177  -25  -53    9  133  131  105  137  -96 -134  -70  -19    9 -224   33 -147 -114  -20    8   88  -92   31  263   43  261  109   39  104  -76 -128]
 [ 256 -200   55  261 -135   35   21 -114   19   85  -36 -112  -13  -43  248  159  104   23   64  -31  -39  194  -28  125 -101 -115   16   20  -30  -89 -151  324]
 [ -53    7   79   78    4  -15  -65   79   33  -18   34   33  117   44   83  -43   31  -39  183  -51   -4   55   59   22   48  -32    3   40  -27   12   51   38]
 [ -55   30    9  -16 -138 -105  -78  133  -81   93   86  -87  -54   26  117    1   60  161   61   71   52  116   -9  -52   28   53    5  -27  -24 -117  -87  116]
 [  -2  -36   70  102   67  -79   76  235   -8  -86  -26  -39  -16  132  139  197  -75   88  -71 -140  -56 -183   34  120   49 -118  -36  118  -69  -28 -213  217]
 [-123  -72   -5 -131   82 -192   44  -88  -59    0  -49 -118  -59 -119   37  162   38   62 -201  -24 -108 -126 -104  -28  140  -93    6  -24  -70   79  -63   50]
 [   3   82  -16  -74 -158 -172   99   75  162  -45 -206 -170 -107   73 -110   -9  124   21 -193    2  -19  -65  -80   47 -132   68  -40   62  -42   29 -103  -21]
 [ -74  108 -204   -4   69   69   26  148  130   -5   77   18   -5   85 -201    6 -101  -11   26   64   62  139   57  -79 -168  -93   63   92   77 -130  150   20]
 [ 113    2   22   50   11 -103   11   62 -188    2  -78  -28  -59   23 -112    5  100  -79   24  227  172  152   21   19   31   13  -10    3   91 -115    7  238]
 [ -50  -93   82  130 -266  -13  -12  -46  197  119   94   21  116 -127   38  -59  -15  -51  111  -20  275   52   73 -176  -49   26  -69  -13   68  -39  -26  -29]
 [ -24 -147   67   50   94  107  100 -158 -134 -212    4  -31 -263  171  198 -150   64  -54 -141  -69  -47  131  -79   71 -223    5 -153  -82   -9   69  -17   80]
 [  87  -69   83  -48  235   34  -78   58   77  -30  -81 -127   92  -63  -23 -219 -116   -4   57  -35   66 -215  142   71 -115   38   92 -137  -60  -61  -71   76]
 [  93   -1  -39  -41   90   27  -96   12   57   33    4   84   50 -249  -94  101   46   34  145  162  142 -111   14  -53  -71  -79  109   20  212  318 -109   75]
 [  34   -1 -121  -23   95 -192   34  -77  220 -148 -143 -101   69 -320  -31  -70   29  163  107  -16  140   51   64  157 -141  120  126 -123   22    8  -59   71]
 [ 215   12   33   61   -8  209   83   26  -12  -80 -156  127   51  -67 -193   88  -47    7  245 -105 -239  -26   29  -33 -157  -37   59  117   28  -71  100  -69]
 [ 210    4   56  -70  -77  191  146  -20  -40 -190 -141  115   95  -17   61  -27  151   15 -259 -136  -90    8   12   -9  107  247    2  210  -41   47 -118  -55]
 [ 107  -93  -90 -174  -19   31  -18   26   24   31   60   40   18 -132  112  -53  106 -142   88   39 -306  -95   24  266  -51   45  197 -135   -6  -85   69 -226]
 [ 132    8  -46   45  -39   11   55  107   63   85   25   55 -173   24  -42  -65 -138  122  -24 -118  115   25  106   20    9  -29   79   38   81  -18 -101   97]
 [-136   12  -60   57  -18 -114   72  119   -6   82  156 -205   33  -90 -165   -9   66  -78   55    4 -138  -46   10  -14   70   14  169  -57    5 -164  -21  -59]
 [  -9  221   58  -14  -14  161   70  -42   -8   82  -13 -112   32   43   68   83  124  190    4    0   24  -59   85  -71   26  -35  110  -46  -11  165   23 -144]
 [ 129   38  -11   85  -18  160  106  167    0  142  -15  -82  -20  160 -150  -48  -43  -57  -95   77   27 -165  136 -148  -52  -40  -28   11  -78  121 -106   25]
 [  64 -173 -100  -84   66  134   55 -105 -171  139   -5  -84   27   48  -45   59 -121 -108   -5  -48   17  -82   33  -40   27   -5   44  185 -115   14  -58   87]
 [-160  -46  104   62  115  -67  -37  109  141   29  193 -188 -108   98 -117  -83  -37   50  166  -71  -41  -43  -51   30  -22  -23   -9   76   66  -32  -35  -53]
 [ -84  157   10 -153  -27  -69  206   29  -14  206 -163  -17  -33   33  -81  116  -46   61  134  144  138   26  -43  210  -30  -90  -22  210   31  -40  140   -8]
 [ 165  103   21  106  150   13  157  291 -133   39  -63 -111   20   32   -4 -168  -42   29  -21   14  -67  -87   20  101  110  163   80  -98  -57   15   52 -103]
 [  90  -48   60   12   82  -63  -46   89  -10   20 -116   35   34 -168   43  -89   10   51  -28   91  104  -27  -77  -57   72  -79   71  -18  -24  -44  111   13]
 [  64   50   79   41   90  -14  195  129  -65   33  -55  105  -81  -23 -141   68  -13 -124   59   19  -77 -102   38   -2  123  -84   15   11   -3 -107  -45   52]
 [ 105  -48 -234    8  -68   26  -51  -43   64   68   20   74  103  -51   30   38  -70 -138 -202  -42   43   -1  -96  -51 -146  -32 -117  -64    2    3  119   21]
 [ -71  -35  109  -52   50   56  146   48   20  180  -68   26 -158 -101  132   18 -163  -69  -41 -202  -96  -49 -100  131   68   77   -3  -43 -118   -8  128   99]
 [-100   45   -4   34   68   72  -24    4   70   32  107  -26   91   28   70   10  104    6  197 -115   -5  118  -49  -80   77  -69 -133  127   53   36   28  141]
 [ -89  -87  101   91   30   77 -108  160   39 -123   37   22    2  -50   34   41   88   25   59  -53  -57  -84  140   22  -67    3 -101   30   51  -63  -91   12]
 [ 282  110   39  -82   37  -15   31   49  146    6   63  -78   13 -194  109   42   28 -128 -140    7   52  -13  119 -127   65  -29  -49 -206  105  132   41   55]
 [  65   56  -47   53  -97  114 -138  -87  153   87    8  -67  -68  124   71 -265  152  252   65  -71   45  210 -106   99   71  -71  -31 -123  100    2  -66  -54]
 [  24   -7   82  -48 -115 -155   54   42  -81    0  -11  -71  -19 -127   72  161   98  -59  -39  -98  -86   78 -137   56   84   66   29  -88  -33 -129  121   -3]
 [ -12  -60 -121 -149 -124   24  -13   32  -47   37   42   42  169   48   60   21  -36  141  100   55  -81   17   14   63  153 -204    6  -45  102 -261   -7  176]
 [-251   27  -93 -126 -206  -70   48  142  164  -86  -96  -66 -145 -177  114    0   97   21 -146  -15  -77  171   80  167  -10  -14   48  111   15 -340  -97  -36]
 [ 102 -141   26 -277  -46 -184 -174  137 -107  133   -9  -92   99  -19 -217   45   33   49  167   30   56  -62   18 -172 -121   39   39   51  210 -138  -42   49]
 [-184 -186   36  -21   13   30   15  -34   10   41  -82  -34   96   25  -14 -182  -30   30  -24  224   53  127  125  -81 -283   70   21  -53   35  -64   -5  151]
 [ -53  -69  -24 -108  140 -163 -201  229   -2  -41 -110  -62   98   38  -40 -272  -60   35  -63 -121 -135 -103  -75  -78  -11  -66  124  107   46   39    6  183]
 [  84   62  -80  162   95  -64  114  178  -17 -313   13  -44 -107    5    2   97  -66  -93  184  115  -76  -31   95 -127 -179   82   12  -58   46   49   -5  151]
 [ -90   95   89  -61  143   78  -67   26  108 -175  144  114  -27   -3   49    2  126  -49  -69  -15  -54  -27    5  -66 -210   82   37 -101  184  109   35   93]
 [  46   37  -34   89   69   59   81   42   23  -65 -197  158   22   87  -80  -13 -204  304   98   83  111  231  241 -100  -97   17   15   59 -195  -97 -155 -108]
 [  67 -139  -86   32   60  -60 -190 -142   17   57  -82   86   12  -26   42   33   -6 -187  122   -1   14   76  -13 -110  -29   27   32  -90  -91   36  -22   89]
 [-182  113  -56  -61  289   65  -67   36   27  142 -136  -53  -19  -38  -99 -109  -83  127   60  -84  -31   35  -49   23 -174 -280  138   96 -190 -159   89  -56]
 [-148   47   25 -112    6  134   74  -33  115  -55   35   -3   36    6 -137   33  -82   86  -30 -206  -77    7   -9 -114   88  -95   67    1   41   47 -120   84]
 [  27   18    5  -90   -8   14  -21  -46   45  152  -95 -186  260  -63    0  132 -127   89   51  -11  -92 -125   91   12   -2    2  173  133  -81  -15   92  131]
 [-149  -86 -153  106  123    3   96   41 -136    6 -101 -272    2  -31 -164  280 -152  -30  -62   -7  -50   84   62    7   77  143  140   30  -36 -150  113  -76]
 [ -77  -66   76  -37  146  -27 -185  250  -87 -120  144 -129  -31  -61    4  105 -197   19   84 -190   69   21   80  -80   17 -114   38  -20   94   88  -42  204]
 [-120   23   40   58    5 -145  -41   88   36  209  103  103   30   81 -115  196  -22   93  -12 -137   26  -29  215  -81   12 -138 -276  -78  -79   60 -154   16]
 [  19 -105  -35  243  -40 -215   32   36   48  211  136 -110  -52  129   97   -1  256   80  -10  -93   70  -82   51  120   46   17  -11  -43    3 -127  -53  165]
 [   8  129  -42 -205   42   46    4  154  -64 -249   47   29  -95   16  146  183  -41   16  -22  -32  -28  -89  141 -116   97   45   82 -148 -101 -134  -20    0]
 [  63  -26  235   42  -24  -94  142   33   49  -65  -26  -96  149 -212  -22   33 -215  -26  156   14 -105   68  -14  -30  221  117  -13  -39   32  -18    0   23]
 [ -63   -9  -21   75   10  -31  -55   96  -42  128  -70  -57   41  -35  -29  -60   14   17  -74  -24  -60   19  -66   27   35  117  -21    5 -201  -54  -79  -20]
 [-147   99   18   78   14  121  112  -14   85  208   66  132  -61   32   43  -50  -59   93 -125 -187   31 -127  -31  112   63   12   24   -1  -20  -89 -154   46]
 [ -32  -95    1  -66   38  -22  -55   14   58   62   10  129   12  155  -41   92  -27  -65  -46 -170   49   27   70 -115    6  -87 -113  -19   96  -32   69 -216]
 [-117    5 -112  153  121 -107   73  -36   79 -101  226  -38  161   94 -207   50   25   -5  182  -45  -74  -22  -13   41  151   36   51  -25   54   95 -103   71]
 [-104  -17 -222   73   79    4  -14  -73 -197   12   60   95  -33   59   79   90 -171   96 -124  -19  207  -27   43  -28   46  171   90   79   53  122  -38 -139]
 [  73   87   -6   26   36  -38   59  -60   74  -30  -28  -60  -46 -116   -8    4    1 -154   50   81 -244  -75   61  129   30   10   24   53   -8  -19   -6   49]
 [ 113    5 -170   65 -211   95  -70  179   58 -195  -15    4  -74   87  -30  148 -152  -59  100  -22   35   59  -52 -113 -103 -225  -19  -45  -49  138  124  118]
 [  75 -138  101   43  227  139   56  -76  -19  -43 -198  212  -26 -153  -24   77  -33  131  -26  -27  -61  -28   39 -154   64  -19 -157  110   99  127   38  -13]
 [-115   31   78  -75 -147  175  -36    3  -11  -69  148   75   43   55   18  -83  142 -139   34  -30   85  -24  163   42   80  -44  -32  102   20  -69  132  115]
 [ 129   32  170  -61 -113   14 -226   81  104  -98 -126   84   -1  121 -170   78  -92   28  -39  114   49   62  -51    9 -125   13  -49   78   90  -28   73  -79]
 [ -46  -28   60   -1 -109  -79   39   48  -35   32  -80   40  -50  -25  -72 -104   31   13   89  -70  164   80   51   66  -51  -88    0   17  108   97 -110  131]
 [ -75  -29   14   28  104   15   78   15  -69  -34   73 -280  147  247   19 -213   22  -62   -9    8   24 -117 -131  -45    5  -84 -212  -42 -161 -195   -6   36]
 [ -47   53  -15    4  -68  -88   -2   41  -24  -28  117 -230  145   54  -94   -9 -128   16   53  115    4   52  102  -85   70  -50  -74 -153  -13   -9   50   65]
 [ -21  -17  301  102  -30  -12   15  111  145   -7  -13   45   94  119    1    0  206  -78  -26   17  107  -87   33  -32   30   36 -262  -87  -72  -33  116   61]
 [  -6   25 -112  -96   64   89  150  150   57   46    0   56  -41  -21  -42 -221    8  415 -113   77 -104   27   -1  -24  -16  -80 -136   34   44   41 -108   -7]
 [  21   73  127   36   56    6  -65  105 -104  120   75   27   32   64   19 -204  -95 -139   34   73 -151 -108   41  -67  -45   25   33  126  -47   34  154   77]
 [ 104    6  114   72  139   56  108   59   74  -62  -22  -13  142  -40  -70 -151  184  -51   52 -112  -16   13   48   51 -153  -61   29 -116 -137   31  -21  102]
 [  -8  187 -227  104   -6 -311 -217   63   13 -138   12  141  -41  -11  -89  -98  181  -83  169   22   53  -28  361 -120 -123  110  146  -44  150  138  170  -27]
 [ -28   38 -124 -103    2   42   26  -54  165  -44   49   90  149   11  -20    3  -16   99 -121  -25  146  -21  -15   24    0   89   64 -118  155  -36   88  -13]
 [ 105  137   -2  -30  101  127  -70 -137  -76  -15   89    6  -74  -23    3   57  151  -15   44   92  -83 -203  198   61  114  -80  155   93  -28  -93  111   92]
 [ -92    3   60  133  199  -27 -197  -81    6  159  -90   55  -45  -31  -70   -7  -20   14  112  -27   35   -7   69   83 -135 -119 -175   12  -48 -115  165  109]
 [ 108   17  -73   63  159   74  -86   87   89  124   40  -14 -181   -1 -100   38  -52 -141   19  -67   99   22    7  -74  -10   75   90  -54  -67  -16   76  -18]
 [   4   29    1  -52   89   -1  -96   -3  -29   31  -56  -48   25   36   48   89  -28 -116   -2   91   65  -58  161 -144   -5  -27  103   79  -37 -118  -17 -103]
 [ 100   37   53  -44  217  -94  157   -5 -166  186   79   28   73   35  -47  -53   17   41  114  -10  -63   45   86 -197  -40 -217  -43  -25  101  -57  -84   73]
 [  21  -13   51  -34 -138   40 -197  -35  -98  -38  -97  -95 -126 -108   82   33  -15  -74   97    8   20   67   10  -12    3    9   -9  -14 -213   47   89   64]
 [  30  -88   86   96  157   14 -122  116   14  275   79   29   35  -10  -96   39   95   61  138 -122  -60   29   35  -69  -80   -4  -95  -42   66 -139  -81  121]
 [ 175  194    8 -119   66 -102  -73  131  -99    5  -96  -83   69    4 -124  -64  -55   12  167   73  -26   23   77   31   28   95 -140 -161   41  -97   99   58]
 [   2    5  -58    2  -72 -157  -59   21  -23   14  -82   27  -20  249   63  -30  -23  -16  106   70   59  -56  -41  -90   52  -49  -50  -30  -56   54  210   45]
 [  28  190   30  163  127   17  257  -11 -102   -8    4 -227   72 -136   83  -69    9  115 -112  -14  -26    3   42 -131   95  -66  -25   24   22   62 -121   11]
 [ -95  210  -53  -43 -202   38   31   21  -49    5   21   -9   49  -94  -52  -49   -6  136   49   77  152  138   76   -5   31  213  -87 -128  -23 -189  212  -53]
 [  86  -91 -119  145  -95  146   10  -60  -54 -313 -114 -150  -83   60 -108  -26  -76  -67   24  -61  -25   -2  -19  175   84  -30  -75 -126  -15  191   76  -48]
 [-110  -44  -64  -35  -92  -18   69  -59   82   34    6   26  -14 -139 -100  -56 -154   62 -276   67 -111 -134   14  -91    5 -176 -275  -50  -66  -27 -111    3]
 [  80  200  125 -108  -84  -91   30   56    5  -45   98  -92   14   -7  -85    0   87   69  -55   13   49  -28 -111   79  -88  -85 -116   71  -18  -28  147   25]
 [-132  -54  134   10  -14    8  133  -35   12  174  -53  -60  -91 -120  -71  130   12  -92 -118  -22  195  -96 -106  -71   -7  159   45   45  -75  -93   89  118]
 [ -28   62 -139   54  -58   24  -62  171  145    2  -62   46   -4  158   93   75   23  230   92   -1  -30   25  -39   27    9   31  340   97   59  -31  142  214]
 [-134 -100  177   10  -52  -23  -31   -7 -176  132 -100   54  144 -121  -50   54  -21  -29 -193  240 -105   29 -129  201   30  110 -106  118  -26 -123  -33   88]
 [  12  -45   67   80  -15  -58 -155   28  176  -59   54 -105   -8   22   45   71  -28  104 -116 -137   20   78   50   83   30 -165  145 -134 -181   36  118  -88]
 [ -48   32 -112   -2 -206 -208 -158    3  146   34  101  -71   28  -68   17 -112  -73  -21  -61   41   16  -52   21  -36  -19  -33  -79  -80    9 -125   66  124]
 [ 121  -40   34   43  -96  -26   25  -81 -244  -44   -2   38 -158   32  -20   51 -101   87  -99 -142 -198  -63    2  -16  -17   34 -206 -138  -45 -126  213  -50]
 [ 119   64 -122  -68 -119   15   17  108   68 -102   90  181   -4  -16  -41  -92  -14   21  -68   66    9    4  144 -187   79   52 -117   -7  -79  207  102  271]
 [  39  -94   34   14 -126   32   -2  -53  258   94   60   76  121  -46   27  -55 -134   49  -32   45 -208  185   32  -33   55   67   49  123  157  -35  -37  -17]
 [   8    3 -229   48   51   72 -130  109   42  -14   48 -117  221 -148   53  107   22  -26   -3   87  150  -56   17  -88   11   31 -139  110  -44 -168   66  146]
 [ -16  171 -127  -24  -86  -56 -158   33  -65  -93  -78  -35  -94   28  -75   64  -20   22   82   60  -46   15   53  -59  137  131 -128 -114  -50  131 -161   -7]
 [  94  136 -208   79  -37  106  -17 -142  124  -51  116   74  -67  120   50  -39 -130  157  261   31   33   29  120   40 -212   41   33  176  275  -35  -34   47]
 [   1  120   64  -36   88   81  -68  127  125  199  -18   51 -182  139 -125 -296 -141  118   15  111   62    6   83  -39 -152  -39  -36  -92  199  -64   34  -22]
 [-180   46  124  -40  305  -52 -192  -35  -17  132  -21  -12   53   33  -77 -102  -61 -166   88  -20   75   26   86  -51  -85 -166  -42  -90  108  115  131   -7]
 [ -47 -101  -42 -105  316   65  -36  129   51   17  268  -45   80   40  -73 -131 -156  138   30    7  -53  189   16 -142 -169  -78   10  142 -106   41  -83  -30]
 [-156  193  -73  -16   93  157  -97   59  127   75 -288   -7   65  188 -223  -90   23   36   12  -74  -65   91  -98  209  197   -7  113   32   86  -38   85   47]
 [ -23  116  -38    4   68   73 -156   14 -111  -21  -50  -67  -74  -24 -165  204   26   22   -2  285 -130  -61  111 -185  -49  -26    5  -76  -11  107   24   17]
 [ -16  -47 -118  -40   87 -124  -22  159   -6  -19  128 -246  -80   -1   -3   87   93   65 -180   36   51  -12 -165  -93  149  100  104 -115  -49  -41 -115  -21]
 [ 182   54  -71 -123  -94   72  -66  -52 -205  124   68 -279  -52   -3  118  203  108  143 -103   94  -89  -37   97  -26  151   25  116   67   51 -180 -152  -49]
 [ -46   80    1   47   10   77 -267   39  -57    6    5  -34  162   -3    3 -120   42  -30  -99  -19   25   99  179  -84  272    7   57 -214 -185 -114  -95  -64]
 [  16 -161   44   28   51 -172 -210  167   65   19  149  -36   22 -168  -15  -20  -17 -102  -45    8  -38 -142  157  103   78  -22  -11   70  -86   60 -105  199]
 [ 121   75  -82  105   85 -167  112   98 -108   47 -178   -7  148  -96  129   41 -100 -103  -63   42 -165  201   28   -3  -70   26   46  -14   36   72  -23  -15]
 [ -88  -82  181  -89   82   13   96  218  -28  169  -53   46 -128 -175   -4   84   54  106 -209   56 -108   30   73  -56  -56  -78  -53  -97  -39  -55 -273  -49]
 [-132  100  -71  167   40  159   42  132 -181  -52   11  113  252  -24  -51 -130  -74   25  121   73  -78  171   71  -11   79   -4 -206  -32   86  164  -15  -41]
 [  62 -121   21  -97 -103    1  -89  -47   31  -54 -106   31  283    0   62 -160  112   66   68 -136  -67  -55   22  -56  -32  -32  246   28  224    5   28 -132]
 [   9  -99 -210  -79  203  -41   29  109  -36   64   35   85 -136  132  -61   14 -126  103   92  -41  -41  202  -26   43   55  129  111  -49  100   51 -161   58]
